tree
version=v2
num_class=1
num_tree_per_iteration=1
label_index=0
max_feature_idx=49
objective=binary sigmoid:1
feature_names=c_weight c_truck_length d_truck_length d_avg_call_cargo_weight d_pre_truck_length r_truck_length dr_driver_start_city_click_cnt_30d d_click_cargo_cnt_30d c_distance_actual d_comment_credit_score dr_driver_route_clk_cnt_7d is_same_truck_length d_view_cnt_30d r_truck_type_cargo_cnt_7d s_feidan_radio r_truck_length_cargo_cnt_7d dr_driver_end_city_click_cnt_30d d_order_cargo_cnt_30d d_deal_max_weight_30d d_truck_type c_truck_type d_click_days_30d c_cargo_type is_pre_same_truck_length d_top1_call_truck_length_cargo_rate_30d dr_driver_start_city_click_cnt_7d s_ctr_7d s_deal_rate is_pre_same_truck_type s_deal_ratio_30d d_top123_end_city_rate_30d c_net_proceeds d_pre_truck_type s_ccr_7d dr_driver_end_city_call_cnt_30d dr_driver_distance_clk_cnt_30d c_expect_freight c_start_city_id d_view_cargo_cnt_30d r_truck_length_c_ratio_7d ds_driver_shipper_clk_cnt_7d dr_driver_route_call_cnt_30d is_same_truck_type c_start_addr_lat c_second_category_id dc_driver_categ2_call_cnt_30d d_prov_line_cnt_30d s_top1_truck_type_30d d_home_mileage r_truck_length_cargo_cnt_14d
feature_infos=[0:1000] [0:17.5] [0:20] [0:1050] [0:17.5] [0:17.5] [0:15571] [0:41907] [-1:5499031] [0:30] [0:2831] [0:1] [0:1272548] [0:26844] [0:1] [0:17801] [0:12049] [0:433] [0:999] [0:17] [1:103] [0:31] [-1:10005] [0:1] [0:1] [0:4255] [0:0.69230769999999997] [0:1] [0:1] [0:1] [0:1] [-100000:4802500] [-1:17] [0:10] [0:1065] [0:31598] [0:4902500] [6423:659004] [0:226751] [0:1] [0:92] [0:827] [0:1] [-1:53.379559999999998] [-1:10038] [0:1250] [0:231] [-1:27] [-1:5335461] [0:36623]

Tree=0
num_leaves=31
num_cat=0
split_feature=11 27 29 45 17 45 34 49 23 15 1 24 4 15 0 14 2 5 14 48 14 42 5 23 34 15 1 4 4 45
split_gain=1.69831e+06 351739 338217 160489 85529.8 79382 59285.5 57288.1 55954.6 55169 42244.4 40522.6 39068.7 37037.4 33510 31326.8 28882.4 24758.1 22403.8 22015.2 20911.3 20829.6 20775.2 20062.5 19482.4 18514.2 16154.7 17720.9 16615.4 16137.5
threshold=1.0000000180025095e-35 0.079550000000000023 0.062581330537796034 1.0000000180025095e-35 1.5000000000000002 1.0000000180025095e-35 1.0000000180025095e-35 33.500000000000007 1.0000000180025095e-35 29.500000000000004 4.0000000000000009 0.75500000000000012 5.5000000000000009 42.500000000000007 31.910000000000004 0.56500000000000006 5.5000000000000009 16.750000000000004 0.59500000000000008 -1.0000000180025095e-35 0.36500000000000005 1.0000000180025095e-35 16.750000000000004 1.0000000180025095e-35 1.0000000180025095e-35 15.500000000000002 4.0000000000000009 5.5000000000000009 5.5000000000000009 1.0000000180025095e-35
decision_type=2 2 2 2 2 2 2 2 2 2 2 2 2 2 2 2 2 2 2 2 2 2 2 2 2 2 2 2 2 2
left_child=1 5 4 7 18 20 13 22 10 17 12 -11 -9 -4 -6 25 -12 -5 -2 -18 -1 29 24 26 -3 -7 27 -13 -28 -8
right_child=2 3 6 9 14 15 21 8 -10 11 16 23 -14 -15 -16 -17 19 -19 -20 -21 -22 -23 -24 -25 -26 -27 28 -29 -30 -31
leaf_value=-0.075084809066874134 0.016536665151053738 0.0034902549878800052 0.1633119806255712 0.13123816852698938 0.11979061678743992 0.066073013106651174 0.13369429290534668 0.12394019963935417 0.12619884638160167 0.092022604598032465 -0.13452066941263602 0.15090899290678833 -0.10623313394520932 0.087216152302757199 0.027221639760881728 -0.074239766073401672 0.0045285417643854825 -0.096408320228447628 -0.092431475626088541 -0.068999062446307977 -0.12752155884184951 0.19952758043307728 -0.1299820674977844 0.19279815269137168 0.086409107814858083 -0.025525357546555424 -0.12335538989087198 -0.11665014379054219 -0.0094986945970669256 0.18461219864239115
leaf_count=350187 75286 131343 144791 172409 124092 67290 142780 33005 25720 130734 192155 11723 38310 207065 167768 303472 138562 17284 168198 510488 995858 272732 26128 3673 110184 173006 59872 11981 170411 121326
internal_value=0 -0.779462 0.889318 -0.330337 -0.174828 -1.37929 1.16706 -0.720014 -0.944101 0.221293 -1.04927 -0.148198 -0.00511429 0.761184 0.251317 -0.850457 -1.1852 0.704377 -1.02221 -1.02479 -1.64781 1.32801 -0.135714 -0.572968 -0.034226 -0.450087 -0.676084 0.336752 -0.846631 1.10475
internal_count=5097833 3673795 1424038 1783982 535344 1889813 888694 1205895 938240 578087 912520 388394 71315 351856 291860 543768 841205 189693 243484 649050 1346045 536838 267655 257660 241527 240296 253987 23704 230283 264106
shrinkage=1


Tree=1
num_leaves=31
num_cat=0
split_feature=11 29 29 45 14 45 40 18 49 39 23 23 18 1 29 41 34 17 5 26 15 5 5 34 34 24 24 2 18 15
split_gain=1.38135e+06 288583 277990 127366 73029.7 67293 53641.1 51681.4 46348.5 44330.2 42104.7 34609.5 30075.6 56105.1 27433.8 26978.2 23817.1 22928.3 22229.1 21372.8 19669.8 19429.2 18439.6 17282.3 16446.7 16825.8 16017.4 14985.1 14381.9 13481.1
threshold=1.0000000180025095e-35 0.1179928667843342 0.066672455519437804 1.0000000180025095e-35 0.67500000000000016 1.0000000180025095e-35 1.0000000180025095e-35 3.7200000000000006 77.500000000000014 0.10405000000000002 1.0000000180025095e-35 1.0000000180025095e-35 20.525000000000002 9.1500000000000004 1.0000000180025095e-35 1.0000000180025095e-35 1.0000000180025095e-35 2.5000000000000004 16.750000000000004 0.017496030000000003 32.500000000000007 4.0000000000000009 16.750000000000004 1.0000000180025095e-35 1.5000000000000002 0.78500000000000014 0.82500000000000007 11.300000000000002 3.5250000000000004 113.50000000000001
decision_type=2 2 2 2 2 2 2 2 2 2 2 2 2 2 2 2 2 2 2 2 2 2 2 2 2 2 2 2 2 2
left_child=1 5 4 6 14 21 9 -4 18 22 24 15 13 -7 -2 -10 20 -6 23 -16 -9 -1 -3 -5 -11 -26 -17 -15 -21 -18
right_child=2 3 7 8 17 12 -8 16 11 10 -12 -13 -14 27 19 26 29 -19 -20 28 -22 -23 -24 -25 25 -27 -28 -29 -30 -31
leaf_value=-0.0065160097342590474 0.10612717489908755 -0.013863321037162611 0.042660661075854665 0.0070765339429722275 -0.12705305566331845 -0.010514829663091693 0.066885757279523325 0.11625300670179253 -0.085394674920002397 -0.13270961224058747 0.059526127723838501 0.12710935187417083 -0.029490296013102053 -0.18961930291107923 -0.05170041224535446 0.038690440825781346 0.13859257091711885 -0.027588720054224178 -0.13461923462222247 -0.058003102124316197 0.053303469953085963 -0.15185590351994321 -0.17965277853279088 0.089217209488607507 -0.040283293934618443 -0.11057510606098311 -0.048799316799331617 -0.090084907245440327 0.057537631794969159 0.10768659885994161
leaf_count=21348 37312 259993 178373 66252 178863 84675 43541 91159 165695 409960 24169 12467 198893 204751 107217 87882 225279 97826 19312 35018 148593 1348235 27894 125303 144716 272084 91518 65107 94993 229405
internal_value=0 -0.702658 0.805206 -0.288034 -0.134835 -1.23662 -0.638471 1.06508 0.207309 -0.733953 -0.955599 -0.166174 -0.755677 -1.0946 0.292161 -0.317852 1.15588 -0.828811 0.61551 0.0583768 0.856991 -1.48221 -0.234533 0.693522 -1.05348 -0.823096 0.0325837 -1.60561 0.375839 1.25798
internal_count=5097833 3673795 1424038 1750786 551229 1923009 1182357 872809 568429 1138816 850929 357562 553426 354533 274540 345095 694436 276689 210867 237228 239752 1369583 287887 191555 826760 416800 179400 269858 130011 454684
shrinkage=0.1


Tree=2
num_leaves=31
num_cat=0
split_feature=11 14 27 40 45 23 39 18 45 23 24 14 39 42 29 5 2 2 45 48 34 23 15 2 1 1 4 0 1 42
split_gain=1.13019e+06 241181 232245 125901 91174 65692.8 47087.9 43371.7 41988.6 40161.5 37258.3 30043.8 27777.1 22944.3 21029.7 19449.3 47931.3 40941.2 18398.1 16845.6 16770 15562.4 14991.5 14121.2 18245.6 17936.1 13189.5 26299.1 21779.7 13057.8
threshold=1.0000000180025095e-35 0.36500000000000005 0.049250000000000009 1.0000000180025095e-35 1.0000000180025095e-35 1.0000000180025095e-35 0.10405000000000002 2.9800000000000004 1.5000000000000002 1.0000000180025095e-35 0.78500000000000014 0.72500000000000009 0.11405000000000001 1.0000000180025095e-35 0.044143782928586013 9.1500000000000004 11.300000000000002 11.300000000000002 1.0000000180025095e-35 1.0000000180025095e-35 1.0000000180025095e-35 1.0000000180025095e-35 99.500000000000014 15.250000000000002 12.750000000000002 12.750000000000002 11.550000000000002 18.950000000000003 9.1500000000000004 1.0000000180025095e-35
decision_type=2 2 2 2 2 2 2 2 2 2 2 2 2 2 2 2 2 2 2 2 2 2 2 2 2 2 2 2 2 2
left_child=1 3 5 4 6 11 15 -4 -3 19 22 20 -12 18 -10 17 -17 -1 -9 -8 -2 26 -6 24 -21 -25 28 -28 -14 -7
right_child=2 8 7 -5 10 29 9 13 14 -11 12 -13 21 -15 -16 16 -18 -19 -20 23 -22 -23 -24 25 -26 -27 27 -29 -30 -31
leaf_value=0.041785805175141411 -0.068768919284579053 -0.14234708959373951 0.034834511745586688 0.080572621730276184 0.063707435025309109 0.005733564461290884 -0.058209134287992653 0.056440228995921729 -0.10763076171257313 0.051994105029806351 0.018759767617814033 -0.10489427460522607 -0.050774371678757882 0.11956453709467928 -0.023376135104542152 -0.17806306991209953 0.010065767646854259 -0.1315321466165357 0.10652821610475859 -0.10504291363712581 0.019051996165569188 0.1186521208098974 -0.006106526607505317 -0.14254340963891385 -0.1702415246525246 -0.0032344612799463097 -0.11163137707430595 0.045721169319343773 -0.18174310434916352 0.079001903329150511
leaf_count=116029 98374 1203193 159756 115811 118093 77194 194249 185874 243103 27644 114381 204720 74389 362972 118751 92811 66797 58416 146568 476071 106681 3558 103696 55850 241171 54142 69236 35111 91293 81899
internal_value=0 -0.637045 0.732863 -0.324692 -0.455775 -0.100467 -0.727967 0.980358 -1.23346 -0.933145 -0.0158269 -0.514515 -0.341211 1.0594 -0.736853 -0.240048 -0.699809 0.063763 0.841175 -1.01662 -0.149791 -0.670978 0.377653 -1.14042 -1.24486 -0.585569 -0.756376 -0.344421 -1.09773 0.514841
internal_count=5097833 3673795 1424038 2108748 1992937 568868 1383180 855170 1565047 1049127 609757 409775 387968 695414 361854 334053 159608 174445 332442 1021483 205055 273587 221789 827234 717242 109992 270029 104347 165682 159093
shrinkage=0.1


Tree=3
num_leaves=31
num_cat=0
split_feature=11 27 14 40 49 45 34 34 29 24 23 15 34 5 2 2 15 45 5 23 18 1 15 1 2 4 15 23 26 42
split_gain=928610 211415 197671 83422.7 67578.8 61870.1 56339.3 52247.7 50586.7 35202.2 30713.9 29122.9 27269.5 19375.8 27882.1 21743.6 17976.8 17742.6 17272.1 16060 19177 21786 16045.1 15279.5 52306.8 22204.4 16671.4 13904 13563.3 13466.3
threshold=1.0000000180025095e-35 0.11225 0.50500000000000012 1.0000000180025095e-35 43.500000000000007 1.0000000180025095e-35 4.5000000000000009 1.0000000180025095e-35 0.018819799646735195 0.82500000000000007 1.0000000180025095e-35 11.500000000000002 1.0000000180025095e-35 9.1500000000000004 11.300000000000002 11.300000000000002 113.50000000000001 1.0000000180025095e-35 16.750000000000004 1.0000000180025095e-35 20.525000000000002 7.9500000000000002 96.500000000000014 7.9500000000000002 11.300000000000002 11.550000000000002 480.50000000000006 1.0000000180025095e-35 0.019378289000000003 1.0000000180025095e-35
decision_type=2 2 2 2 2 2 2 2 2 2 2 2 2 2 2 2 2 2 2 2 2 2 2 2 2 2 2 2 2 2
left_child=1 5 7 4 12 13 27 10 -4 23 -2 -7 -3 15 -15 -1 -9 -10 -14 20 21 -13 -12 25 -25 26 -8 -6 -16 -18
right_child=2 3 8 -5 6 11 9 16 17 -11 22 19 18 14 28 -17 29 -19 -20 -21 -22 -23 -24 24 -26 -27 -28 -29 -30 -31
leaf_value=-0.048051385812304698 0.0097623791766421695 -0.030354643352623386 -0.091928619744704981 0.087637599775552244 -0.10313031772788211 0.00056231194296520388 0.088501169541219157 0.11480171280464196 -0.029475563375394438 -0.065442109568621981 0.096166044781669777 -0.040558411802531003 0.055309363068362594 -0.16358810849587918 -0.13076353065654761 -0.14441875665892051 0.055175430672479667 0.053268870903480807 -0.13015793083455601 0.081836777939396199 -0.042679818389636588 -0.14885344668555331 0.022403065534382666 -0.14989201073513755 0.074943393575329462 -0.097323341563817389 -0.015808994831981046 0.021496911767114373 -0.068513602430258572 0.099868364046515889
leaf_count=178595 217438 180460 238792 76058 554473 138565 65483 286700 111738 288291 113612 68577 174130 676175 299623 146736 156481 86649 19516 8112 157345 237803 68411 74809 29882 32993 49163 16365 200641 144217
internal_value=0 -0.580117 0.66925 -0.186019 -0.30501 -0.998942 -0.539402 0.854397 -0.291831 -0.20801 0.486523 -0.567218 0.180829 -1.22974 -1.35463 -0.846325 1.00688 0.157473 0.472337 -0.802248 -0.866857 -1.1623 0.775876 0.142689 -0.35502 0.38648 0.579681 -0.964093 -1.02982 0.813456
internal_count=5097833 3673795 1424038 1561623 1485565 2112172 1111459 986859 437179 540621 399461 610402 374106 1501770 1176439 325331 587398 198387 193646 471837 463725 306380 182023 252330 104691 147639 114646 570838 500264 300698
shrinkage=0.1


Tree=4
num_leaves=31
num_cat=0
split_feature=11 27 29 45 17 49 40 40 33 34 23 15 23 15 1 2 28 0 34 5 2 15 9 2 15 15 42 48 45 5
split_gain=765300 179970 176739 86247.5 60131.7 37694 36866.7 34657.9 32604.8 29979 28467.8 27123.2 23196.2 22091.5 21676.8 25957.6 21017.4 20809.9 19803.1 19032.2 20745 17518.8 17196.3 17174.1 15717.8 15435.6 12561.7 12295.4 10058.1 9523.02
threshold=1.0000000180025095e-35 0.065250000000000016 0.093039404600858702 1.0000000180025095e-35 1.5000000000000002 64.500000000000014 1.0000000180025095e-35 1.0000000180025095e-35 1.0000000180025095e-35 1.0000000180025095e-35 1.0000000180025095e-35 13.500000000000002 1.0000000180025095e-35 74.500000000000014 4.0000000000000009 5.5000000000000009 1.0000000180025095e-35 34.630000000000003 5.5000000000000009 12.750000000000002 15.250000000000002 8.5000000000000018 12.500000000000002 5.5000000000000009 276.50000000000006 284.50000000000006 1.0000000180025095e-35 -1.0000000180025095e-35 4.5000000000000009 16.750000000000004
decision_type=2 2 2 2 2 2 2 2 2 2 2 2 2 2 2 2 2 2 2 2 2 2 2 2 2 2 2 2 2 2
left_child=1 6 4 5 22 16 8 11 -1 13 14 29 18 -4 15 -7 19 26 -13 -3 -21 -10 -2 -16 -11 -20 -6 -25 -23 -5
right_child=2 3 9 7 17 10 -8 -9 21 24 -12 12 -14 -15 23 -17 -18 -19 25 20 -22 28 -24 27 -26 -27 -28 -29 -30 -31
leaf_value=-0.015013731515531276 -0.10619358591096362 -0.015408945165665528 0.077607019767221841 0.05874472384643336 0.0089743370539520761 0.075834264155879128 -0.015276330746421631 0.094556924958870595 -0.074517394282682364 0.10745847899039329 0.051246694246793546 -0.072822921268585236 0.10593921994570397 0.011309647933787021 -0.14833292656370051 -0.11907223501640721 0.026403533205229354 -0.031156955942203482 0.020421474077524118 -0.15317121410991455 0.03478886349510861 -0.13366855501787595 -0.019687463817993307 -0.036834615174048929 0.067588133766260008 -0.060558963842485242 0.066211897999656419 -0.09491551677595815 -0.081524021478131925 -0.11913041184542071
leaf_count=87787 184142 173463 165186 107042 120790 23887 120473 50254 259133 329086 24736 183632 12576 138613 181153 39059 143973 117473 158325 96714 14794 1160431 95047 133057 147830 91723 125871 463342 136960 11281
internal_value=0 -0.530022 0.612543 -0.229196 -0.0363891 -0.510145 -1.0035 0.168132 -1.09178 0.861574 -0.741835 0.0288332 -0.175552 0.55295 -0.824304 -0.0046767 -0.150682 0.262832 -0.273689 -0.436381 -1.0783 -1.16964 -0.698967 -0.92672 0.984478 -0.0279735 0.436224 -0.792304 -1.27011 0.517801
internal_count=5097833 3673795 1424038 1909011 643323 1294178 1764784 614833 1644311 780715 865234 564579 446256 303799 840498 62946 428944 364134 433680 284971 111508 1556524 279189 777552 476916 250048 246661 596399 1297391 118323
shrinkage=0.1


Tree=5
num_leaves=31
num_cat=0
split_feature=11 14 27 34 15 17 23 49 45 24 18 24 5 2 45 18 1 1 4 42 9 36 26 45 5 3 3 49 4 9
split_gain=632130 158669 148985 86298.8 67834.3 50017.8 38499.8 37077.6 30330.5 29973.1 28241.1 24169.1 23911.4 50812.1 19622.2 18525.2 21269.5 15317 21524.1 15308.4 14635.1 13283.9 12919.1 12867 11743 59677.7 11076.4 10719.4 10129.4 9948.76
threshold=1.0000000180025095e-35 0.36500000000000005 0.070950000000000013 1.0000000180025095e-35 82.500000000000014 1.5000000000000002 1.0000000180025095e-35 13.500000000000002 1.5000000000000002 0.78500000000000014 3.9500000000000006 0.72500000000000009 12.750000000000002 15.250000000000002 1.0000000180025095e-35 21.100000000000005 9.1500000000000004 4.0000000000000009 5.5000000000000009 1.0000000180025095e-35 13.500000000000002 19100.000000000004 0.018527008500000004 1.0000000180025095e-35 9.1500000000000004 13.715000000000002 21.935000000000006 16.500000000000004 5.5000000000000009 3.5000000000000004
decision_type=2 2 2 2 2 2 2 2 2 2 2 2 2 2 2 2 2 2 2 2 2 2 2 2 2 2 2 2 2 2
left_child=1 3 5 7 9 20 11 -1 -3 24 29 -6 27 -14 21 16 -10 18 -13 23 -2 22 -7 -12 26 -26 -5 -11 -19 -4
right_child=2 8 10 4 6 14 -8 -9 15 12 19 17 13 -15 -16 -17 -18 28 -20 -21 -22 -23 -24 -25 25 -27 -28 -29 -30 -31
leaf_value=-0.0029351357298095897 -0.093146920799763389 -0.11598424126539585 -0.029510548696522761 0.10688527573903442 -0.0075829142781570049 -0.089416857284440751 0.085285867640380375 -0.092309348025435153 -0.0056332772289700399 0.060430721138703694 0.043689978441699501 0.07490590288006041 -0.13440239344954039 0.098144283249035985 0.050399246171957596 -0.012081212818762238 -0.12843418049767794 -0.14330495556395889 -0.1524477152111918 0.099572651137164181 -0.013515305730926278 0.050171994575492464 0.0013498665012779347 0.088708565435987263 -0.13564706165802184 0.08807306309726376 -0.0023697808822782844 0.0023479393987205508 -0.074704304672503843 0.047049954071535845
leaf_count=138316 194672 1203193 47852 62736 179800 76266 23780 676318 46967 70584 161111 18465 115761 16315 186366 131262 183625 110963 23629 320245 89353 36831 77953 127420 59244 60037 23864 204976 323960 105969
internal_value=0 -0.485241 0.56181 -0.231841 -0.0147638 -0.0169869 -0.408501 -0.712271 -0.988542 0.287511 0.801332 -0.53181 0.0233291 -0.621131 0.248318 -0.56355 -0.913155 -0.766878 0.0557398 0.875091 -0.616342 -0.10367 -0.342855 0.683698 0.639393 0.324757 0.909329 0.224796 -0.892025 0.297608
internal_count=5097833 3673795 1424038 2108748 1294114 661441 680597 814634 1565047 613517 762597 656817 407636 132076 377416 361854 230592 477017 42094 608776 284025 191050 154219 288531 205881 119281 86600 275560 434923 153821
shrinkage=0.1


Tree=6
num_leaves=31
num_cat=0
split_feature=11 27 14 49 45 29 34 34 49 23 24 49 49 45 49 15 23 42 9 24 40 5 2 34 23 2 1 42 1 5
split_gain=522912 139480 132037 55232.1 53943.4 47413.8 47167.1 33654.5 24396.7 23128.2 22709.8 22454.3 18312.8 14958.5 14945.5 14831.6 13933.2 13838.6 13712 13469.4 12761.1 12179.2 26889.1 12072.8 11759.4 13764 11671 11597.9 10418.9 10374.5
threshold=1.0000000180025095e-35 0.14005000000000004 0.40500000000000008 295.50000000000006 1.0000000180025095e-35 0.027590737678110603 1.0000000180025095e-35 1.0000000180025095e-35 50.500000000000007 1.0000000180025095e-35 0.83500000000000008 38.500000000000007 16.500000000000004 1.0000000180025095e-35 7.5000000000000009 76.500000000000014 1.0000000180025095e-35 1.0000000180025095e-35 21.500000000000004 0.84500000000000008 1.0000000180025095e-35 12.750000000000002 15.250000000000002 10.500000000000002 1.0000000180025095e-35 15.250000000000002 12.750000000000002 1.0000000180025095e-35 4.0000000000000009 16.750000000000004
decision_type=2 2 2 2 2 2 2 2 2 2 2 2 2 2 2 2 2 2 2 2 2 2 2 2 2 2 2 2 2 2
left_child=1 4 7 6 12 18 14 11 20 19 29 -2 -1 -7 -3 -9 28 -13 -4 23 -6 -12 -23 -5 25 26 -10 -17 -14 -8
right_child=2 3 5 9 8 13 10 15 24 -11 21 17 16 -15 -16 27 -18 -19 -20 -21 -22 22 -24 -25 -26 -27 -28 -29 -30 -31
leaf_value=-0.055691626329289312 0.080910911425820728 0.025794644871181688 -0.10094088145878768 -0.078879138989446318 -0.020645385053091714 -0.013015575690598434 0.065206903073054392 0.10053564697020051 -0.067621128659679119 0.057222767970340795 0.019589423275888654 -0.017042641456224358 -0.0019347455957632765 0.054071687459861718 -0.056865758391057335 0.045341154483989024 0.028096165095837618 0.04253256369235392 -0.026015632194977368 -0.097984867342738813 0.065856973179545017 -0.12367582639127234 0.096358502210189712 -0.0094238424857795711 0.07216767684052508 -0.0033695938857548715 -0.1420291251299001 0.084890015992801535 -0.11563526140609959 -0.10152479787092115
leaf_count=264027 84886 53771 194919 156178 217369 128998 206973 204394 210373 21833 186836 140055 20490 100206 304938 169983 16124 132333 108788 258597 33351 70398 9141 128194 7906 54284 132729 159476 1306174 14109
internal_value=0 -0.445007 0.515816 -0.0946292 -0.770477 -0.14856 0.11636 0.704195 -0.384797 -0.539059 0.351296 0.393003 -0.991053 0.238385 -0.386304 0.83577 -1.09562 0.172073 -0.674331 -0.648819 -0.0323756 0.0285694 -0.572673 -0.413033 -0.684861 -0.751955 -0.913077 0.684378 -1.12676 0.609826
internal_count=5097833 3673795 1424038 1410968 2262827 532911 846166 891127 656012 564802 487457 357274 1606815 229204 358709 533853 1342788 272388 303707 542969 250720 266375 79539 284372 405292 397386 343102 329459 1326664 221082
shrinkage=0.1


Tree=7
num_leaves=31
num_cat=0
split_feature=23 27 18 5 1 2 18 17 5 15 45 45 26 28 0 15 48 2 9 3 0 2 1 41 14 15 41 34 45 42
split_gain=444262 184645 108439 144516 136627 126153 48774 42422.4 35305.2 34232.3 24742.3 21555.1 20591.5 19784.8 15237.3 14874.4 14606.8 12500.8 12201.9 11784.6 11750.6 11589 11365.9 11184.2 11006.8 10615.7 10323.6 9680.42 9032.1 8275.67
threshold=1.0000000180025095e-35 0.045450000000000011 22.050000000000004 9.1500000000000004 7.9500000000000002 11.300000000000002 22.050000000000004 1.0000000180025095e-35 9.1500000000000004 224.50000000000003 1.0000000180025095e-35 1.0000000180025095e-35 0.032500513000000002 1.0000000180025095e-35 13.025000000000002 409.50000000000006 1.0000000180025095e-35 11.300000000000002 5.5000000000000009 20.865000000000006 32.005000000000003 11.300000000000002 14.350000000000001 1.0000000180025095e-35 1.0000000180025095e-35 9.5000000000000018 1.0000000180025095e-35 1.0000000180025095e-35 1.0000000180025095e-35 1.0000000180025095e-35
decision_type=2 2 2 2 2 2 2 2 2 2 2 2 2 2 2 2 2 2 2 2 2 2 2 2 2 2 2 2 2 2
left_child=1 6 3 7 14 -5 8 17 24 16 13 -8 20 22 19 -14 -9 -3 -7 -4 28 -10 -6 -12 -1 -18 -27 -13 29 -2
right_child=12 2 4 5 10 18 11 9 21 -11 23 27 15 -15 -16 -17 25 -19 -20 -21 -22 -23 -24 -25 -26 26 -28 -29 -30 -31
leaf_value=0.028712851497948774 -0.014983518679151934 -0.031299124599345834 0.003914487353078101 -0.14220018485500396 0.0031199094974520892 -0.053708754332995802 -0.071872287167551591 0.095346716434956805 -0.13867861689856176 -0.03159365819896684 0.053176116505503572 -0.059769714329812484 0.090437632411984104 0.05689054550622067 0.021045904273337909 0.041708267113099343 0.069789178362460166 -0.12579937224468823 0.023783845657239996 -0.12525363132377279 -0.10247376191185276 -0.093809493501159094 -0.12566793182764177 0.098004513672296845 -0.062826625803684852 -0.013137436046538052 0.053934430356505192 0.0083037994215633387 0.068342829674997857 0.050535646629343824
leaf_count=39082 72067 110855 17892 694445 172825 80503 399782 58350 675096 195785 150331 83086 327433 147445 21826 100543 69134 83698 132770 221027 16983 379374 30496 98884 168802 146399 61067 180976 101785 59092
internal_value=0 -0.278808 -0.0430454 -0.330202 0.305484 -0.885164 -0.765873 0.108156 -1.02459 0.279817 0.533199 -0.406412 0.712646 0.268221 -0.920382 0.824182 0.492859 -0.63645 0.0112104 -1.09611 0.418971 -1.20418 -0.0779124 0.759415 -0.380001 0.333237 0.135924 -0.0919717 0.466008 0.21811
internal_count=5097833 4419930 2493732 1633006 860726 907718 1926198 725288 1262354 530735 599981 663844 677903 350766 260745 427976 334950 194553 213273 238919 249927 1054470 203321 249215 207884 276600 207466 264062 232944 131159
shrinkage=0.1


Tree=8
num_leaves=31
num_cat=0
split_feature=23 14 11 15 18 34 26 1 34 24 34 5 42 1 45 1 4 3 15 1 4 2 40 40 4 14 34 12 18 3
split_gain=369239 156311 92956.1 61312.7 54886.3 44387.4 30864.7 23517.5 22865.8 21716.2 21658.9 19772.9 19303.5 17889.8 15026.5 12199.9 50645.2 15661.6 13404.3 11123.7 15708.9 10865.3 10555.8 9703.93 9648.62 9594.16 9511.61 9504.45 9028.97 9010.18
threshold=1.0000000180025095e-35 0.40500000000000008 1.0000000180025095e-35 17.500000000000004 21.100000000000005 6.5000000000000009 0.017496030000000003 16.750000000000004 1.0000000180025095e-35 0.83500000000000008 1.0000000180025095e-35 9.1500000000000004 1.0000000180025095e-35 10.65 1.0000000180025095e-35 7.9500000000000002 11.550000000000002 20.865000000000006 722.50000000000011 4.0000000000000009 5.5000000000000009 11.300000000000002 1.0000000180025095e-35 1.0000000180025095e-35 5.5000000000000009 0.29500000000000004 1.0000000180025095e-35 17832.500000000004 0.71000000000000008 19.805000000000003
decision_type=2 2 2 2 2 2 2 2 2 2 2 2 2 2 2 2 2 2 2 2 2 2 2 2 2 2 2 2 2 2
left_child=1 2 3 7 11 22 -6 10 -4 15 -1 28 14 -8 25 17 -17 18 -7 20 -11 -13 27 -12 -21 -2 -15 -5 -3 -10
right_child=12 4 8 5 6 9 13 -9 29 19 23 21 -14 26 -16 16 -18 -19 -20 24 -22 -23 -24 -25 -26 -27 -28 -29 -30 -31
leaf_value=-0.014910841427894056 0.031897093310926709 -0.10476906306777881 0.0038039172392305993 -0.055910090925350243 -0.082498322719910089 0.072000854822698926 -0.086919627875254424 -0.13082918977656363 -0.016326521254394443 0.089880370184527242 0.035049628136544518 -0.13391274197946998 0.079812837798804437 -0.032205114936688879 0.067672620014829446 -0.12685002712663787 0.063299925497866602 -0.066271937661068009 -0.032662160507357763 -0.12249482962851879 -0.13777476668076624 -0.089134068540739367 0.0065744388395601681 0.10263799146396013 -0.043287067613911795 -0.040202004674543351 0.03094649158315213 -0.095131071418217292 -0.0174215738622483 0.067502253824125322
leaf_count=237779 134204 75104 189374 415121 311351 87346 85203 46387 26057 13831 225898 653978 353559 97778 132944 107367 46483 41575 39768 83469 16698 374920 35414 22223 231997 57196 154652 499151 103392 197614
internal_value=0 -0.256345 -0.0444663 -0.227263 -0.723747 -0.424376 -0.347816 0.170955 0.423759 -0.12982 0.232427 -1.0203 0.657544 -0.0498817 0.433955 0.121197 -0.244679 0.346943 0.516753 -0.464504 0.311471 -1.15092 -0.71279 0.461047 -0.593903 0.172869 0.113487 -0.764148 -0.470279 0.618155
internal_count=5097833 4419930 2563552 2150507 1856378 1618220 648984 532287 413045 668534 485900 1207394 677903 337633 324344 322539 153850 168689 127114 345995 30529 1028898 949686 248121 315466 191400 252430 914272 178496 223671
shrinkage=0.1


Tree=9
num_leaves=31
num_cat=0
split_feature=23 29 11 18 15 5 1 34 45 41 15 2 34 34 49 17 24 14 22 0 14 13 24 48 39 27 4 1 4 4
split_gain=306884 138152 71678.3 60102.4 47285 37160.7 27249.7 25880.2 24786.8 21948 18917.1 18365.3 18130.7 14887.4 14831.2 12790.1 12471.1 11443.5 10955.7 9947.98 9618.95 9160.93 9003.7 8742.6 8130.7 8081.74 7873.07 7828.92 11528.5 7933.27
threshold=1.0000000180025095e-35 0.10844572633504869 1.0000000180025095e-35 23.040000000000003 58.500000000000007 9.1500000000000004 16.750000000000004 3.5000000000000004 1.0000000180025095e-35 1.0000000180025095e-35 61.500000000000007 11.300000000000002 2.5000000000000004 1.0000000180025095e-35 7.5000000000000009 1.5000000000000002 0.74500000000000011 0.76500000000000012 14.500000000000002 20.750000000000004 0.7350000000000001 2904.5000000000005 0.75500000000000012 1.0000000180025095e-35 0.16725000000000004 0.12785000000000005 11.550000000000002 4.0000000000000009 5.5000000000000009 5.5000000000000009
decision_type=2 2 2 2 2 2 2 2 2 2 2 2 2 2 2 2 2 2 2 2 2 2 2 2 2 2 2 2 2 2
left_child=1 3 4 5 6 15 7 14 18 23 -2 -7 -12 -4 -3 -1 -11 19 -5 -10 -13 25 -9 -6 -17 -14 -15 28 -18 -29
right_child=10 2 13 8 9 11 -8 22 17 16 12 20 21 26 -16 24 27 -19 -20 -21 -22 -23 -24 -25 -26 -27 -28 29 -30 -31
leaf_value=-0.079070150592674124 0.079537814880386082 0.032481101954346552 0.0115712424959901 -0.030387791263559168 -0.021216984433966239 -0.12848481590898167 -0.12613951913151339 0.070102824491585933 -0.04857610924679874 0.015675053978788295 0.0067250701570486923 -0.0485197090382836 0.03357025704625833 -0.017829006075862127 -0.032090184251234478 0.038341182212230214 0.075172839145169035 -0.046115399018327487 -0.087510767242516316 0.033040304530757715 -0.10775703209211425 -0.0059614448718214889 0.023112025070089574 -0.084171815980784909 -0.039089253165435607 0.077818416795468248 0.068369293745092485 -0.11955493189927138 -0.12706750548911858 -0.03915467142734088
leaf_count=132005 264731 90063 145892 243671 78164 808996 67972 84699 51401 131906 160412 206538 84049 21578 354631 57162 13840 105115 239894 165127 229128 34347 198462 476445 87563 134364 160118 69276 15875 184409
internal_value=0 -0.235647 0.0121088 -0.595541 -0.16262 -0.871078 0.0828007 0.139349 -0.250251 -0.454642 0.606795 -1.05937 0.439555 0.459146 -0.133695 -0.309359 -0.187953 0.0386169 -0.556295 0.197369 -0.749844 0.592747 0.414868 -0.7278 -0.00811387 0.655097 0.627242 -0.425276 0.237842 -0.55604
internal_count=5097833 4419930 2093330 2326600 1765742 1521392 795827 727855 805208 969915 677903 1244662 413172 327588 444694 276730 415306 321643 483565 216528 435666 252760 283161 554609 144725 218413 181696 283400 29715 253685
shrinkage=0.1


Tree=10
num_leaves=31
num_cat=0
split_feature=23 27 40 18 5 1 2 14 18 2 0 39 5 26 28 26 15 6 0 1 2 15 48 9 45 3 22 5 39 2
split_gain=255055 118560 74613 56871.5 100063 91391.7 81147.8 30843.9 31049.1 30571.3 29871.2 23570.2 18416.1 18400.6 14860.4 14786.2 11328.5 10958.2 10644.4 9792.83 9762.14 9229.32 9108.95 9039.95 8614.22 8280.99 8158.87 7740.26 7108.96 6964.99
threshold=1.0000000180025095e-35 0.038450000000000005 1.0000000180025095e-35 23.040000000000003 9.1500000000000004 10.65 11.300000000000002 0.095000000000000015 22.050000000000004 11.300000000000002 19.050000000000004 0.17915000000000003 16.750000000000004 0.038254821500000008 1.0000000180025095e-35 0.015553527000000001 320.50000000000006 213.50000000000003 32.005000000000003 10.65 5.5000000000000009 466.50000000000006 57305.500000000007 8.5000000000000018 1.0000000180025095e-35 21.935000000000006 14.500000000000002 7.9500000000000002 1.0000000180025095e-35 11.300000000000002
decision_type=2 2 2 2 2 2 2 2 2 2 2 2 2 2 2 2 2 2 2 2 2 2 2 2 2 2 2 2 2 2
left_child=1 7 3 4 9 10 -6 -1 27 11 25 28 14 18 26 -10 -15 -4 24 -17 -13 22 -22 -8 -2 -5 -7 -9 -3 -29
right_child=13 2 17 5 6 12 23 8 15 -11 -12 20 -14 16 -16 19 -18 -19 -20 -21 21 -23 -24 -25 -26 -27 -28 29 -30 -31
leaf_value=0.0051508525472498713 0.01519191191711055 0.12703720971391344 0.086486564536934485 -0.0015117258040357709 -0.12836918541686157 0.035061637649103465 -0.04973242261352237 -0.057014132101252314 -0.075690329317545713 -0.095252260480122794 0.048751302762401166 -0.064266038527620736 -0.10682878878754475 0.078664438908239473 0.067320706792297361 -0.091210317474961861 0.036071972428465986 0.023220299797747094 -0.097355992552595444 -0.0033976570833585567 0.078180670595163662 -0.051925023956161533 -0.004279787048809101 0.01592864821121363 0.055774696841309868 -0.096254697099106501 -0.027343789453953743 -0.12476024857009305 0.03663499907892119 -0.085457108433432308
leaf_count=145511 164554 6657 95640 24890 706540 154499 97222 133644 297463 109392 39663 107177 31731 260229 197277 63726 106077 68002 18578 215040 28876 81833 125921 118513 128465 311939 65168 605988 236117 351501
internal_value=0 -0.216656 -0.0359364 -0.133962 -0.349882 0.145683 -0.829866 -0.647979 -0.746161 0.0423556 -0.618586 0.147417 0.437073 0.559795 0.478249 -0.430715 0.695125 0.674169 0.327798 -0.170341 -0.172567 -0.00385851 0.193834 -0.0817559 0.36568 -0.856995 0.214676 -0.996088 0.425859 -1.07879
internal_count=5097833 4419930 2607057 2443415 1618248 825167 922275 1812873 1667362 695973 376492 586581 448675 677903 416944 576229 366306 163642 311597 278766 343807 236630 154797 215735 293019 336829 219667 1091133 242774 957489
shrinkage=0.1


Tree=11
num_leaves=31
num_cat=0
split_feature=23 29 18 11 5 49 0 41 2 14 42 49 10 17 45 13 48 14 34 5 2 24 1 2 1 1 4 6 34 14
split_gain=212170 103873 59475 47008.7 40096.1 35173.8 26905.5 26568.6 23673.2 23155.9 17511.6 16317.7 13636.2 13196.6 12211.3 11868.4 11315.6 9542.25 9476.2 9385.27 14235.4 9339.85 8853.46 8806.83 20324.2 12582.5 8545.23 8243.29 7816.44 7658.54
threshold=1.0000000180025095e-35 0.15688482671976092 20.525000000000002 1.0000000180025095e-35 9.1500000000000004 299.50000000000006 20.050000000000004 1.0000000180025095e-35 11.300000000000002 0.76500000000000012 1.0000000180025095e-35 7.5000000000000009 1.0000000180025095e-35 1.0000000180025095e-35 1.0000000180025095e-35 25.500000000000004 -1.0000000180025095e-35 0.7350000000000001 1.0000000180025095e-35 4.0000000000000009 5.5000000000000009 0.84500000000000008 16.750000000000004 15.250000000000002 12.750000000000002 12.100000000000001 5.5000000000000009 81.500000000000014 3.5000000000000004 0.20500000000000004
decision_type=2 2 2 2 2 2 2 2 2 2 2 2 2 2 2 2 2 2 2 2 2 2 2 2 2 2 2 2 2 2
left_child=1 2 4 5 13 7 -4 11 -6 12 14 -3 15 -1 29 -8 -13 -10 -5 26 -21 28 -9 24 -18 -25 -15 -14 -7 -2
right_child=10 3 6 18 8 21 9 22 17 -11 -12 16 27 19 -16 -17 23 -19 -20 20 -22 -23 -24 25 -26 -27 -28 -29 -30 -31
leaf_value=-0.078420687658171229 0.022307275475386704 0.03411147352297296 -0.071563910279714371 0.015511874421313394 -0.12119863497494035 -0.071079401876936329 0.041562777232264675 0.044035165731427989 -0.038543900865037721 -0.057109125067435457 0.065701498758248836 0.031369226905707641 0.060871002257976904 0.11436500560059625 0.052768893010252664 -0.038169284106145181 -0.027460932752946171 -0.097402747271730025 0.06045596796230665 -0.10686463625052556 0.0071218085962469566 -0.076846395417653632 -0.10679074420467059 -0.090238507532830789 -0.12095290826826161 0.054189523151249856 -0.07946027727249616 0.006984653679660351 -0.0100475938494463 -0.036814264513597456
leaf_count=128562 120612 96671 276183 117272 908149 122219 49159 242298 235324 216625 353559 57866 103527 12053 132944 182410 305300 226404 148110 55011 132852 275226 19492 31131 143097 36482 9134 111138 178235 70788
internal_value=0 -0.199687 -0.474586 0.0538017 -0.746309 -0.0970639 -0.168508 0.0648091 -0.953833 -0.0222824 0.516441 -0.135007 0.136712 -0.23627 0.298906 -0.152181 -0.272827 -0.613264 0.455588 -0.0164379 -0.176036 -0.482461 0.399694 -0.372868 -0.480472 0.123916 0.735668 0.366109 -0.286639 0.0614646
internal_count=5097833 4419930 2646531 1773399 1707489 1508017 939042 932337 1369877 662859 677903 670547 446234 337612 324344 231569 573876 461728 265382 209050 187863 575680 261790 516010 448397 67613 21187 214665 300454 191400
shrinkage=0.1


Tree=12
num_leaves=31
num_cat=0
split_feature=23 45 27 14 4 1 1 15 26 15 34 26 18 48 1 11 41 39 5 2 18 29 40 28 0 49 6 2 29 24
split_gain=176304 92331.7 57979.2 35096 28818.2 99087.4 41623.8 20817 20000.5 16805.9 15659.1 15532 15509.6 15282.7 15120 13722.8 13572.1 10935.3 10491.2 12289.1 9792.47 9655.25 8115.37 7821.27 7638.71 7412.16 7153.01 6923.14 6908.73 6437.73
threshold=1.0000000180025095e-35 1.0000000180025095e-35 0.16235000000000002 0.60500000000000009 11.550000000000002 9.1500000000000004 9.1500000000000004 284.50000000000006 0.021611324000000005 95.500000000000014 3.5000000000000004 1.0000000180025095e-35 27.900000000000002 -1.0000000180025095e-35 10.65 1.0000000180025095e-35 1.0000000180025095e-35 0.20035000000000003 9.1500000000000004 11.300000000000002 21.510000000000002 0.14128125458955768 1.0000000180025095e-35 1.0000000180025095e-35 13.025000000000002 4344.0000000000009 363.50000000000006 11.300000000000002 0.17655269801616671 0.85500000000000009
decision_type=2 2 2 2 2 2 2 2 2 2 2 2 2 2 2 2 2 2 2 2 2 2 2 2 2 2 2 2 2 2
left_child=1 2 8 4 5 17 24 13 11 21 26 -1 18 -4 -14 22 -8 -3 27 -20 -5 -2 23 -15 -6 28 -11 -10 -12 -19
right_child=9 3 7 20 6 -7 16 -9 12 10 25 -13 14 15 -16 -17 -18 29 19 -21 -22 -23 -24 -25 -26 -27 -28 -29 -30 -31
leaf_value=0.01114111685514959 0.0389533595455928 0.059462020263552545 0.042741021596387915 -0.075385775976421418 -0.084959303537458009 -0.11741545931639313 0.03306029012509154 -0.059043098084733431 -0.014735942308569901 0.0041628401399944406 0.016373471894854805 -0.093955330389571365 -0.083521014802050292 -0.050092510882337939 0.0076443049604002812 0.028784781987170632 0.077732898249965141 0.024887798472005781 -0.1170468502930242 -0.048079985590434637 -0.015093942424194928 0.075991331576100093 0.055769260038373625 -0.0043879132359141773 0.021874105973522497 -0.026243819597131259 -0.079276281041995578 -0.10305696927213684 0.063801880183839838 -0.049284875302444187
leaf_count=43476 148814 120607 121733 224993 97732 269244 232649 251983 147251 112795 66445 1000438 104986 328481 172963 90679 142076 78137 319043 181855 177659 177847 15987 173680 17621 25537 30418 53144 116047 53513
internal_value=0 -0.183697 -0.399413 0.108776 0.219645 -0.0747505 0.411508 -0.102841 -0.631525 0.476138 0.282743 -0.863088 -0.448718 0.0126142 -0.139727 -0.110615 0.545889 0.372956 -0.638824 -0.831953 -0.400797 0.631357 -0.260022 -0.31922 -0.591245 0.451943 -0.0885305 -0.306503 0.512536 0.0281059
internal_count=5097833 4419930 3005699 1414231 1011579 521501 490078 982543 2023156 677903 351242 1043914 979242 730560 277949 608827 374725 252257 701293 500898 402652 326661 518148 502161 115353 208029 143213 200395 182492 131650
shrinkage=0.1


Tree=13
num_leaves=31
num_cat=0
split_feature=11 14 29 40 40 34 9 12 29 15 15 49 45 15 34 45 34 10 14 24 15 6 24 6 15 15 15 6 26 17
split_gain=148046 62706.1 55194.5 33353.4 25714.5 25439.6 24962.6 21546.4 18009.2 16140.5 15572.1 13329.5 11403.3 11260.4 10563 10351 9741.85 9594.33 9272.76 7806.43 6587.21 6379.1 6281.6 6172.51 6161.45 6052.79 5898.02 5584.56 5563.38 5261.24
threshold=1.0000000180025095e-35 0.25500000000000006 0.14128125458955768 1.0000000180025095e-35 1.0000000180025095e-35 1.0000000180025095e-35 17.500000000000004 35739.500000000007 0.04750416427850724 34.500000000000007 177.50000000000003 45.500000000000007 6.5000000000000009 284.50000000000006 1.0000000180025095e-35 3.5000000000000004 3.5000000000000004 1.5000000000000002 0.25500000000000006 0.74500000000000011 11.500000000000002 160.50000000000003 0.69500000000000006 160.50000000000003 7.5000000000000009 1539.5000000000002 13.500000000000002 183.50000000000003 0.024260564500000002 3.5000000000000004
decision_type=2 2 2 2 2 2 2 2 2 2 2 2 2 2 2 2 2 2 2 2 2 2 2 2 2 2 2 2 2 2
left_child=1 3 6 5 8 11 18 13 24 -8 14 -1 22 19 26 20 -12 28 -2 -7 -10 -6 -9 -19 -3 -18 -4 -5 -11 -20
right_child=2 4 10 27 21 7 9 12 15 17 16 -13 -14 -15 -16 -17 25 23 29 -21 -22 -23 -24 -25 -26 -27 -28 -29 -30 -31
leaf_value=-0.015048355319181819 0.0084461152843911414 -0.048269348612005353 0.067133175487350802 0.082729366436570514 0.043019391951871794 0.054456485165290253 0.048929101659455562 -0.0062655520796889783 -0.019177937048120125 -0.060600875558128431 -0.01127183593736898 -0.069437372018284302 0.018237879861935747 -0.024169041303442843 0.071829878933202293 0.006187477308657121 0.048420820009189298 0.040819976728725005 -0.06886595138161386 0.013291554180274268 -0.069050321355445213 -0.037064585103093142 -0.056682500329237821 -0.015736049516870503 -0.094613412235002831 -0.018244909392324656 0.022848828474754737 0.025532336998345367 -0.0032425693738322662 -0.0039375304815725161
leaf_count=227048 52617 157965 44273 44992 71611 126996 130913 81428 123251 93989 101483 441079 83612 156570 228079 92530 119259 76944 251042 293093 424555 51905 318346 63515 927799 28517 137719 51015 64825 30863
internal_value=0 -0.255494 0.292176 -0.0661301 -0.567009 -0.143439 -0.0159228 -0.00470924 -0.655739 0.164669 0.486598 -0.453668 -0.282963 0.184874 0.597614 -0.412123 0.238305 -0.0397631 -0.403661 0.293539 -0.545113 0.154113 -0.431017 0.1911 -0.862319 0.397302 0.373411 0.586444 -0.318243 -0.57136
internal_count=5097833 3673795 1424038 1824179 1849616 1728172 764708 1060045 1726100 430186 659330 668127 483386 576659 410071 640336 249259 299273 334522 420089 547806 123516 399774 140459 1085764 147776 181992 96007 158814 281905
shrinkage=0.1


Tree=14
num_leaves=31
num_cat=0
split_feature=23 45 14 41 12 13 6 26 42 18 5 14 45 7 9 49 6 28 7 14 2 34 40 5 2 4 12 28 30 49
split_gain=128272 71503.9 44858.6 28139.4 24360.9 20750.3 17858.8 16854.9 15304.5 12562.5 16648 11942.1 10010.4 9546.55 9322.18 9203.49 9171.71 8328.25 7723.71 7721.67 7032.43 6801.34 6203.82 6068.68 14625.9 8789.06 5890.47 5682.12 5612.61 5514.71
threshold=1.0000000180025095e-35 1.0000000180025095e-35 0.25500000000000006 1.0000000180025095e-35 22843.500000000004 51.500000000000007 222.50000000000003 0.024260564500000002 1.0000000180025095e-35 7.7300000000000013 4.0000000000000009 0.32500000000000007 1.0000000180025095e-35 148.50000000000003 11.500000000000002 123.50000000000001 136.50000000000003 1.0000000180025095e-35 547.50000000000011 0.85500000000000009 5.5000000000000009 1.0000000180025095e-35 1.0000000180025095e-35 4.0000000000000009 5.5000000000000009 5.5000000000000009 43376.500000000007 1.0000000180025095e-35 0.75500000000000012 4.5000000000000009
decision_type=2 2 2 2 2 2 2 2 2 2 2 2 2 2 2 2 2 2 2 2 2 2 2 2 2 2 2 2 2 2
left_child=1 2 4 5 9 29 19 -4 12 10 20 16 26 -12 -9 27 -7 -11 -16 22 -1 28 -5 25 -25 -8 -2 -6 -10 -3
right_child=8 3 7 6 15 11 23 14 21 17 13 -13 -14 -15 18 -17 -18 -19 -20 -21 -22 -23 -24 24 -26 -27 -28 -29 -30 -31
leaf_value=0.096839742010746077 0.011756947817760301 0.061019836353260803 -0.086182462783753508 0.046241202789500002 -0.043245385619190078 0.0034315099507742867 0.092639825455926569 -0.076234457638381645 0.048555507665005306 -0.0013169950237654434 -0.0076169576558035648 -0.061492479884944676 0.042290756912093219 -0.067368089756110902 0.0010252381752955373 -0.06417734953702546 -0.059712589780487137 0.045217181324862181 -0.053289289585529726 -0.029989551497480393 -0.044020594203212741 0.064634595085767507 0.090561839050178228 -0.10523145249088797 0.0072383914154443528 -0.090881104953431893 -0.044383584882307585 0.0031575324334112719 -0.0044355551741830012 0.010716869469375223
leaf_count=17964 138702 44857 963598 222808 181183 229009 12782 237748 79138 204408 170089 291149 132944 192148 185968 372912 97158 148759 200922 42560 14430 224444 42240 59583 178980 10674 52698 115570 49977 182431
internal_value=0 -0.159282 -0.353492 0.101179 -0.161688 -0.10561 0.326549 -0.642312 0.414582 0.0297484 -0.202916 -0.295387 0.207516 -0.358414 -0.404708 -0.423197 -0.11183 0.221934 -0.236739 0.520354 0.639501 0.552051 0.572736 0.00760659 -0.0919506 0.565803 -0.00912622 -0.218465 0.328835 0.241635
internal_count=5097833 4419930 3005699 1414231 1417463 844604 569627 1588236 677903 747798 394631 617316 324344 362237 624638 669665 326167 353167 386890 307608 32394 353559 265048 262019 238563 23456 191400 296753 129115 227288
shrinkage=0.1


Tree=15
num_leaves=31
num_cat=0
split_feature=11 14 26 34 15 26 26 15 18 28 5 2 24 45 40 2 5 15 41 9 9 38 26 12 12 6 32 21 4 15
split_gain=108371 49107.9 46501.2 33443.8 25782.2 17763 18404.1 17338.2 16517.1 15167.4 18345.2 23908.1 14060.8 12956.8 10695.2 8969.1 9848.71 8623.73 9143.77 7950.49 7840.24 7616.55 7542.08 7254.49 6927.33 6895.79 6134.65 5630.32 5439.09 5435.66
threshold=1.0000000180025095e-35 0.50500000000000012 0.031794678000000007 1.0000000180025095e-35 61.500000000000007 1.0000000180025095e-35 0.015322223000000001 10.500000000000002 5.4050000000000011 1.0000000180025095e-35 12.750000000000002 15.250000000000002 0.69500000000000006 4.5000000000000009 1.0000000180025095e-35 15.250000000000002 12.750000000000002 45.500000000000007 1.0000000180025095e-35 16.500000000000004 5.5000000000000009 9758.5000000000018 0.016211011500000001 29460.500000000004 16357.500000000002 108.50000000000001 1.5000000000000002 18.500000000000004 11.550000000000002 22.500000000000004
decision_type=2 2 2 2 2 2 2 2 2 2 2 2 2 2 2 2 2 2 2 2 2 2 2 2 2 2 2 2 2 2
left_child=1 3 5 7 9 -2 -7 -1 20 10 26 -12 -6 22 19 16 -11 -10 25 -8 -4 -14 -3 -21 -9 -19 -5 -22 -18 -24
right_child=2 13 8 4 12 6 14 24 17 15 11 -13 21 -15 -16 -17 28 18 -20 23 27 -23 29 -25 -26 -27 -28 -29 -30 -31
leaf_value=-0.0036695755039384045 0.062300470546388501 -0.098676929087908996 -0.036195649458243176 -0.022024603236310066 0.012677842771847095 -0.061307542889482786 -0.046187298096712022 -0.039470357415228668 0.065574727032413169 0.044772853310890898 -0.11259272944690012 0.048251494192013064 -0.0092326094989132711 -0.013969521918918327 0.045698692772200469 0.096594548589981941 -0.10856004334638059 0.032593706143105854 0.056491126180481889 0.02323718529407167 0.054340189778743081 -0.052159418252495829 -0.029771086554562443 -0.026455523039201907 -0.080234002073854685 -0.020506837764734494 0.034276914022792655 0.0011963641066151248 0.021559095106685858 -0.076976236510238494
leaf_count=220760 37956 539735 79922 64406 207664 205374 139905 350579 205316 173391 132801 23491 211894 149363 59588 29611 35592 137659 147086 115613 46623 425157 190120 104151 387816 61631 167582 83214 13297 350536
internal_value=0 -0.221901 0.254112 -0.107664 0.0278126 -0.0613699 -0.146019 -0.412675 0.419349 0.231153 0.0148537 -0.562312 -0.198432 -0.638803 -0.00161071 0.468733 0.340486 0.501067 0.383292 -0.113505 0.0740855 -0.361419 -0.755859 0.0227094 -0.597932 0.195958 0.220588 0.234568 -0.480826 -0.57404
internal_count=5097833 3673795 1424038 2444041 1484886 662587 624631 959155 761451 640171 388280 156292 844715 1229754 419257 251891 222280 551692 346376 359669 209759 637051 1080391 219764 738395 199290 231988 129837 48889 540656
shrinkage=0.1


Tree=16
num_leaves=31
num_cat=0
split_feature=23 40 27 18 5 2 13 0 26 28 26 2 10 6 48 5 2 26 4 15 0 12 34 1 28 9 39 28 15 38
split_gain=93114 57385.7 54403.7 34768.1 36456.1 24697.4 22737.6 19788.2 15371.8 15239.4 13277 11334.8 11139.2 12871.9 10791.4 9450.8 13680 8959.7 8917.18 8562.48 8472.92 8247.75 7485.68 7313.25 10003.7 7189.4 6776.05 6680.14 6370.01 6148.6
threshold=1.0000000180025095e-35 1.0000000180025095e-35 0.18875000000000003 19.525000000000002 9.1500000000000004 11.300000000000002 754.50000000000011 18.505000000000006 0.025386074000000005 1.0000000180025095e-35 0.042256012000000009 11.300000000000002 1.0000000180025095e-35 118.50000000000001 -1.0000000180025095e-35 4.0000000000000009 5.5000000000000009 1.0000000180025095e-35 5.5000000000000009 722.50000000000011 32.005000000000003 19348.500000000004 1.0000000180025095e-35 10.65 1.0000000180025095e-35 6.5000000000000009 1.0000000180025095e-35 1.0000000180025095e-35 276.50000000000006 14052.500000000002
decision_type=2 2 2 2 2 2 2 2 2 2 2 2 2 2 2 2 2 2 2 2 2 2 2 2 2 2 2 2 2 2
left_child=1 2 3 4 11 -6 9 23 17 14 20 15 -3 -14 -4 18 -17 -9 -1 -12 22 -19 -2 -5 -25 -7 -16 -8 -24 -10
right_child=10 12 6 7 5 25 27 8 29 -11 19 -13 13 -15 26 16 -18 21 -20 -21 -22 -23 28 24 -26 -27 -28 -29 -30 -31
leaf_value=0.097195613976744089 -0.0058394869746610876 -0.036039815459017514 0.040056672746981208 -0.083049356545758485 -0.11287493022935319 -0.076829233348232148 -0.055513073661802907 0.09237551289135737 0.03488881563744746 0.037511625875622297 0.056260867932268879 -0.094126827077944134 0.076753167906287445 0.018287773870992965 0.098002061281554517 -0.0862389742557233 0.005407240461921415 -0.0030640510378405887 -0.077016821885365669 -0.0001920323453300033 -0.095909924143750713 -0.056052824900901278 0.045638279839275195 -0.070438134872853664 0.067650672279142329 -0.023202458391252297 -0.018027998595248704 -0.0097287678232046652 -0.00062009979096168974 -0.0089774407838535946
leaf_count=18128 126530 50558 84863 237492 974440 228670 237021 7949 166373 313442 274424 85807 112919 146521 5116 90819 179514 157432 12404 49173 19504 272831 140763 58423 15228 209584 460959 177710 67509 115727
internal_value=0 -0.137271 -0.213584 -0.396265 -0.616021 -0.845407 0.0332932 -0.168058 -0.041239 0.154412 0.360162 -0.166029 0.4098 0.49575 -0.0247325 -0.0434196 -0.182937 -0.290766 0.614472 0.503658 0.181599 -0.348335 0.213772 -0.626845 -0.139274 -0.472802 -0.143998 -0.332645 0.336262 0.189963
internal_count=5097833 4419930 4109932 2830821 1799366 1412694 1279111 1031455 720312 864380 677903 386672 309998 259440 550938 300865 270333 438212 30532 323597 354306 430263 334802 311143 73651 438254 466075 414731 208272 282100
shrinkage=0.1


Tree=17
num_leaves=31
num_cat=0
split_feature=14 11 45 45 5 2 4 27 28 12 42 2 1 45 13 24 1 2 32 12 39 12 13 1 12 38 34 34 15 48
split_gain=77126.7 60877.9 31979.9 19964.2 19466 37579.7 32208.9 16945.8 16381.3 15124.3 13980.7 11083 13275.4 9885.45 9418.08 9369.95 8860.14 18435.9 11737 7462.98 6859.37 6771.97 6551.75 6477.6 6153.16 5996.48 5966.64 5735.02 5475.33 5267.94
threshold=0.59500000000000008 1.0000000180025095e-35 1.0000000180025095e-35 1.0000000180025095e-35 4.0000000000000009 5.5000000000000009 5.5000000000000009 0.011750000000000002 1.0000000180025095e-35 32895.500000000007 1.0000000180025095e-35 15.250000000000002 12.750000000000002 1.0000000180025095e-35 41.500000000000007 0.72500000000000009 12.750000000000002 15.250000000000002 1.5000000000000002 38954.500000000007 0.11935000000000003 32249.500000000004 43.500000000000007 12.750000000000002 30992.500000000004 1722.5000000000002 4.5000000000000009 1.0000000180025095e-35 5.5000000000000009 1.0000000180025095e-35
decision_type=2 2 2 2 2 2 2 2 2 2 2 2 2 2 2 2 2 2 2 2 2 2 2 2 2 2 2 2 2 2
left_child=1 2 4 10 6 -6 -1 22 16 27 14 12 20 -9 -3 -11 18 -18 25 -5 -10 26 -2 -13 -12 -7 -16 -4 -17 -30
right_child=7 3 9 19 5 8 -8 13 11 15 24 23 -14 -15 21 28 17 -19 -20 -21 -22 -23 -24 -25 -26 -27 -28 -29 29 -31
leaf_value=0.079707027500165395 -0.031293376481913548 0.029091831015001027 0.00082704732950235598 0.056880136784760338 -0.10590797043051675 0.0040621046541592194 -0.092453582809893783 -0.048058598832932876 0.042069108203953272 0.024414350266826021 0.041693888166185078 -0.02845355380905434 -0.087718996042631336 0.0071889184478049501 -0.02929313014433867 0.019218415592010284 -0.11089151199639816 0.0035216911174880462 -0.0044198173489328795 0.027650076680097009 -0.012520702616388383 -0.060773267528149572 -0.081335898962075548 0.087444802172080144 0.0043979793640233113 -0.079200081620811602 0.024371878112532996 0.043362684363280862 0.0091925679709170208 -0.0480918406674401
leaf_count=50504 154731 73061 115976 251460 366193 40070 59617 341851 68562 114055 193977 21250 104640 171772 119167 41719 258984 65865 289143 191099 262400 81448 722123 35507 102195 196919 50628 250207 51922 250788
internal_value=0 0.0850435 -0.101305 0.291889 -0.26929 -0.340367 0.302004 -0.481016 -0.217727 0.127824 0.130449 0.0268561 -0.0953143 -0.214646 -0.0829258 -0.0808531 -0.401626 -0.716503 -0.266274 0.457098 0.0361736 -0.231511 -0.705036 0.607221 0.303522 -0.629781 -0.0831528 0.334039 -0.245895 -0.353776
internal_count=5097833 3707356 2644321 1063035 1819654 1709533 110121 1390477 1343340 824667 620476 492359 435602 513623 324304 458484 850981 324849 526132 442559 330962 251243 876854 56757 296172 236989 169795 366183 344429 302710
shrinkage=0.1


Tree=18
num_leaves=31
num_cat=0
split_feature=23 40 27 18 5 2 49 28 34 15 34 13 21 17 15 10 6 22 46 13 12 6 34 39 0 9 27 14 27 38
split_gain=68416 45257.2 42556.2 27556 30086.4 22006.1 19307.9 15404.3 14107.1 12981.5 13033 12679.5 12475.1 9511.79 9124 8895.11 10760.7 7528.3 7265.33 6972.17 6914.64 6681.35 6155.58 6101.94 6164.09 6094.08 5480.69 5445.38 5140.64 4953.64
threshold=1.0000000180025095e-35 1.0000000180025095e-35 0.17335000000000003 19.525000000000002 9.1500000000000004 11.300000000000002 737.50000000000011 1.0000000180025095e-35 6.5000000000000009 30.500000000000004 3.5000000000000004 26.500000000000004 23.500000000000004 1.0000000180025095e-35 18.500000000000004 1.0000000180025095e-35 88.500000000000014 14.500000000000002 5.5000000000000009 2356.5000000000005 42884.500000000007 246.50000000000003 2.5000000000000004 0.15545000000000003 19.050000000000004 4.5000000000000009 0.075250000000000025 0.27500000000000008 0.19845000000000004 9300.5000000000018
decision_type=2 2 2 2 2 2 2 2 2 2 2 2 2 2 2 2 2 2 2 2 2 2 2 2 2 2 2 2 2 2
left_child=1 2 3 4 13 -6 8 11 12 -2 21 -5 -4 -1 -9 -3 -17 29 -14 27 -10 26 -16 24 -15 -7 -11 -12 -18 -13
right_child=9 15 6 7 5 25 -8 14 20 10 19 17 18 23 22 16 28 -19 -20 -21 -22 -23 -24 -25 -26 -27 -28 -29 -30 -31
leaf_value=-0.06242679675038864 0.055346956633386291 -0.032182412266394608 0.016654587748364601 0.010257230323952765 -0.10865201742699818 -0.075984923385814335 -0.043104868703250677 0.04131928606980026 0.043910375456933132 -0.030082791966742933 0.050606851746705366 -0.0047962537295372365 -0.054676295497693622 0.042235818749947723 -0.038762793688111835 0.074324712255224537 -0.00052471218528395407 -0.088390323301749715 -0.0062631885775635641 -0.01796347298477868 0.0043469623162095232 -0.050565466570696854 0.0095885026217716988 -0.024007176651335976 -0.10837538490490997 -0.023736947738287946 0.020678796423262872 0.0093694656822218125 0.050929496487595073 -0.056460110743324257
leaf_count=143140 171328 50558 308331 110340 953771 197144 291160 110219 216838 64260 166767 94312 191061 72787 148862 93825 122917 209829 186544 39301 152997 55808 164944 142136 12957 235294 112443 67996 42698 167266
internal_value=0 -0.119635 -0.188778 -0.362045 -0.569425 -0.792139 0.0212109 -0.154701 0.101948 0.313636 0.205678 -0.374395 -0.0541951 -0.147796 0.0641053 0.370836 0.44872 -0.540644 -0.277823 0.358253 0.303309 -0.041387 -0.0986884 0.0324651 0.311123 -0.435582 0.0676391 0.418896 0.202225 -0.355679
internal_count=5097833 4419930 4109932 2763001 1757229 1386209 1346931 1005772 1055771 677903 506575 581747 685936 371020 424025 309998 259440 471407 377605 274064 369835 232511 313806 227880 85744 432438 176703 234763 165615 261578
shrinkage=0.1


Tree=19
num_leaves=31
num_cat=0
split_feature=26 11 26 45 24 26 18 9 40 49 5 2 4 0 3 6 10 12 15 5 29 34 2 9 48 23 39 12 28 17
split_gain=60989.3 38880.8 34123.3 28927.1 21336.2 20999.6 15589.2 13434.7 12691.3 11987.1 10983.6 20913.1 20451.2 16217 23414.5 10968.8 12474.4 10263.2 9709.97 8492.49 8421.9 7560.72 6458.55 6043.1 5656.99 5610.78 6484.49 5603.69 5033.97 4609.93
threshold=0.028766442000000003 1.0000000180025095e-35 1.0000000180025095e-35 3.5000000000000004 0.85500000000000009 0.013692584500000002 2.0100000000000002 7.5000000000000009 1.0000000180025095e-35 64.500000000000014 4.0000000000000009 5.5000000000000009 5.5000000000000009 32.525000000000006 27.875000000000004 348.50000000000006 1.0000000180025095e-35 30674.500000000004 14.500000000000002 4.0000000000000009 0.031031894497573379 2.5000000000000004 5.5000000000000009 11.500000000000002 40397.500000000007 1.0000000180025095e-35 0.08765000000000002 25724.500000000004 1.0000000180025095e-35 1.0000000180025095e-35
decision_type=2 2 2 2 2 2 2 2 2 2 2 2 2 2 2 2 2 2 2 2 2 2 2 2 2 2 2 2 2 2
left_child=2 4 -1 5 6 -4 19 29 17 28 12 -12 -6 25 -15 16 18 23 -9 -2 -5 -11 -21 -7 -20 26 -13 -23 -8 -3
right_child=1 7 3 20 10 8 9 15 -10 21 11 13 -14 14 -16 -17 -18 -19 24 22 -22 27 -24 -25 -26 -27 -28 -29 -30 -31
leaf_value=0.037739041707610041 0.045040149766209688 -0.040446356253094576 -0.084843058686823999 -0.027820493350173711 0.076847103523105642 -0.056914334239449541 0.024337305800465156 0.056017712281539567 0.021617320676140458 -0.034189502476413412 -0.10486015109613685 -0.0069589048050012108 -0.1120531391398147 -0.10245166665570773 0.078311480390775567 0.00022846614269585923 0.056950704641404976 -0.071626264344003571 0.058523040240055647 -0.11319201226635695 0.023670883335936029 0.039976228498985855 -0.030811613431264203 -0.015186252168804064 0.00072114135940357441 0.051560251145608832 -0.053973939724854515 -0.0025125889939545312 0.064376448476083883 0.014071464962333783
leaf_count=147427 20328 90571 739839 180955 28147 256964 144388 70593 79457 170075 204838 107008 34232 56334 56989 118661 279472 368427 22082 70536 169671 113769 172264 409722 204970 8769 423154 200751 95656 51784
internal_value=0 0.128503 -0.260826 -0.349381 -0.0472437 -0.486959 0.109781 0.311915 -0.339376 0.208689 -0.267834 -0.343997 0.295175 -0.212447 0.355977 0.363627 0.4211 -0.421105 0.236646 -0.328236 0.0471815 0.0339252 -0.49278 -0.278404 0.0889272 -0.362506 -0.404985 0.153719 0.44235 -0.128251
internal_count=5097833 2745371 2352462 2205035 1907238 1854409 987767 838133 1114570 724639 919471 857092 62379 652254 113323 695778 577117 1035113 297645 263128 350626 484595 242800 666686 227052 538931 530162 314520 240044 142355
shrinkage=0.1


Tree=20
num_leaves=31
num_cat=0
split_feature=28 13 27 13 14 34 48 13 41 34 40 29 13 45 13 48 40 38 29 6 5 2 0 3 39 10 12 40 13 34
split_gain=57111.7 31593.3 29348.7 27244.9 22626.3 18487.8 13948.4 12917.8 11423.3 11363.1 10355 8996.48 7667.58 7072.14 6927.83 6049.96 5824.14 5818.53 5788.47 5119.75 5103.36 6206.06 4855.73 4590.18 4489.25 4380.86 4370.2 4299.44 4076.69 4050.6
threshold=1.0000000180025095e-35 26.500000000000004 0.20815000000000003 214.50000000000003 0.25500000000000006 1.0000000180025095e-35 1.0000000180025095e-35 815.50000000000011 1.0000000180025095e-35 2.5000000000000004 1.0000000180025095e-35 0.027590737678110603 25.500000000000004 5.5000000000000009 3234.0000000000005 40397.500000000007 1.0000000180025095e-35 9300.5000000000018 0.15386471152305606 126.50000000000001 14.350000000000001 15.250000000000002 39.250000000000007 20.285000000000004 1.0000000180025095e-35 1.0000000180025095e-35 43376.500000000007 1.0000000180025095e-35 711.50000000000011 1.0000000180025095e-35
decision_type=2 2 2 2 2 2 2 2 2 2 2 2 2 2 2 2 2 2 2 2 2 2 2 2 2 2 2 2 2 2
left_child=1 16 6 5 9 12 28 8 15 19 13 -6 -2 17 26 -4 20 -8 -14 25 24 -22 -7 -24 -1 -5 -11 -17 -3 -26
right_child=3 2 7 4 11 22 10 -9 -10 14 -12 -13 18 -15 -16 27 -18 -19 -20 -21 21 -23 23 -25 29 -27 -28 -29 -30 -31
leaf_value=0.091375910571615621 0.041964839696724827 0.0027143004531286984 0.034208645571140846 -0.020191008846269558 -0.066557937575831755 0.053543724373330076 -0.054272604992189249 -0.038890742176662781 0.033215617739371331 0.04345999454005197 -0.0056011410764833071 -0.014066656847357376 -0.025667889030527087 -0.02396701945556011 -0.027233391535307679 -0.027295976234447978 0.062592680821669147 -0.086473431592558422 0.016736073464042971 -0.047243901119597455 -0.11565153952909435 0.028468662454953383 -0.10319322646964375 0.024022482616502628 -0.0062343474591448804 0.033426953713889533 0.011897086019875264 0.053235025338318503 -0.055888674275630337 0.028742404930983179
leaf_count=9689 87700 207713 42998 103479 309383 411023 564566 271631 166903 213188 88598 268115 231517 116024 57794 312092 35329 627118 128431 100415 43515 10794 25458 54356 191628 53550 134976 9005 64383 156462
internal_value=0 -0.186076 -0.283778 0.171871 -0.00351664 0.340524 -0.473616 -0.0580831 0.0666927 0.145548 -0.570926 -0.339688 0.0875612 -0.63863 0.270821 -0.122678 0.188292 -0.706157 -0.0415269 -0.144423 0.113848 -0.509926 0.496173 0.0707428 0.167398 0.0209692 0.329211 -0.220829 -0.088342 0.124649
internal_count=5097833 2918448 2471031 2179385 1240900 938485 1668402 802629 530998 663402 1396306 577498 447648 1307708 405958 364095 447417 1191684 359948 257444 412088 54309 490837 79814 357779 157029 348164 321097 272096 348090
shrinkage=0.1


Tree=21
num_leaves=31
num_cat=0
split_feature=45 14 41 12 26 13 6 11 6 6 9 29 15 10 34 14 42 27 48 29 49 40 33 17 10 38 28 19 12 30
split_gain=51267.5 32128.5 20039.1 19597.9 17655.2 14554.4 12994.7 12231 10411.1 10340.2 9218.17 8224.05 6797.36 5507.16 5434.97 4920.94 4751.25 4679.2 4514.82 4325.99 4173.45 4027.97 3980.81 3912.99 3891.59 3883.85 3613.36 3573.59 3316.65 3201.56
threshold=1.0000000180025095e-35 0.21500000000000002 1.0000000180025095e-35 43879.500000000007 0.018735114500000004 53.500000000000007 282.50000000000006 1.0000000180025095e-35 92.500000000000014 76.500000000000014 12.500000000000002 0.10035589337348939 37.500000000000007 1.0000000180025095e-35 7.5000000000000009 0.8650000000000001 1.0000000180025095e-35 0.17335000000000003 95417.500000000015 0.17655269801616671 14.500000000000002 1.0000000180025095e-35 1.0000000180025095e-35 6.5000000000000009 1.0000000180025095e-35 2358.5000000000005 1.0000000180025095e-35 1.5000000000000002 30065.500000000004 0.71500000000000008
decision_type=2 2 2 2 2 2 2 2 2 2 2 2 2 2 2 2 2 2 2 2 2 2 2 2 2 2 2 2 2 2
left_child=1 3 5 7 22 19 15 12 11 10 -6 26 18 20 25 21 27 -8 -1 -2 -12 -4 -3 -5 28 -14 -7 -9 -13 -10
right_child=2 4 6 23 9 8 17 16 29 -11 13 24 14 -15 -16 -17 -18 -19 -20 -21 -22 -23 -24 -25 -26 -27 -28 -29 -30 -31
leaf_value=0.043329796355843692 0.012176266186433743 0.016633767923520431 0.04384923607621654 -0.061370544707037095 -0.045113743557707885 -0.054883559796996745 -0.016237314973206358 -0.031472921312493969 -0.025631070418349701 -0.054524721575776237 0.028804069968705923 0.022903977219596364 -0.0018132303362661238 0.033345867984294751 0.0026981215660984684 -0.016624343797576071 0.039136337857808887 0.023377366454708851 -0.00092360079673821014 0.045650217589288222 -0.025637025787040597 0.073638810938276955 -0.075756634559460911 -0.023994360811827469 0.041439829416480591 -0.049726718878617279 -0.0076737414324975209 0.018238337757626132 -0.019340158505895485 -0.067023276382000022
leaf_count=62618 186974 16033 299845 149942 263845 107680 130362 37260 154407 349955 51937 79794 90354 119423 166851 46082 148598 151437 244703 100165 210342 64199 807989 240219 73168 297443 138611 124421 80173 103003
internal_value=0 -0.157862 0.183957 -0.0151972 -0.392989 0.0353414 0.350477 0.0774987 -0.103569 -0.242877 -0.104682 0.024472 -0.0681712 0.0519833 -0.213341 0.483993 0.255168 0.095606 0.112142 0.280215 -0.115313 0.514193 -0.718168 -0.36987 0.182678 -0.370547 -0.247796 0.0913162 0.0436037 -0.401405
internal_count=5097833 3381933 1715900 1562409 1819524 1023975 691925 1172248 736836 995502 645547 479426 861969 381702 554648 410126 310279 281799 307321 287139 262279 364044 824022 390161 233135 387797 246291 161681 159967 257410
shrinkage=0.1


Tree=22
num_leaves=31
num_cat=0
split_feature=28 40 9 5 13 48 12 14 27 45 2 13 13 16 13 1 2 2 26 18 21 49 29 45 38 39 20 29 19 47
split_gain=44676.7 25696 24563.3 21913.2 19388.9 18060.5 16375.7 12651.4 10555.6 9699.54 8846.46 7380 6751.21 7925.84 6712.09 5929.24 10497.8 10431.5 5678.2 5607.26 5582.66 5330.81 5203.47 5113.18 5236.27 4728.26 4590.5 4449.52 4413.94 8118.14
threshold=1.0000000180025095e-35 1.0000000180025095e-35 17.500000000000004 14.350000000000001 37.500000000000007 1.0000000180025095e-35 30065.500000000004 0.30500000000000005 0.24985000000000004 1.0000000180025095e-35 15.250000000000002 1629.5000000000002 63.500000000000007 2.5000000000000004 609.50000000000011 7.9500000000000002 11.300000000000002 8.2000000000000011 0.016211011500000001 2.4200000000000004 21.500000000000004 19.500000000000004 0.0193870859220624 6.5000000000000009 9300.5000000000018 1.0000000180025095e-35 101.50000000000001 0.31526261568069464 8.5000000000000018 6.0000000000000009
decision_type=2 2 2 2 2 2 2 2 2 2 2 2 2 2 2 2 2 2 2 2 2 2 2 2 2 2 2 2 2 2
left_child=1 3 7 4 25 11 12 19 23 21 -5 15 -4 -14 -10 16 -6 -17 -3 20 -2 -8 -9 24 -7 -1 -12 -23 29 -27
right_child=2 18 6 10 5 8 9 22 14 -11 26 -13 13 -15 -16 17 -18 -19 -20 -21 -22 27 -24 -25 -26 28 -28 -29 -30 -31
leaf_value=0.084543339314203159 0.0036080914601236956 -0.031771056960633266 0.064249216405672119 -0.11438744504730483 0.05269782639930487 -0.042271727960060852 0.029905538027230179 -0.070853886032062954 -0.0055611882372789342 0.022712996588187196 -0.072823501096941995 -0.043997999724501184 -0.017491456038276215 0.038242256707639533 -0.049513746150452564 -0.11184397668546991 -0.068856950817188303 0.0099625312269777146 0.040353408949856645 0.019755784056858711 -0.071357428009381912 -0.040718616541461396 -0.02227276832243992 -0.014154918981799791 -0.075052915114308394 0.0076662220738055765 0.032833220195794877 0.0012415245124259235 0.039614001613333415 -0.069414246847294137
leaf_count=10536 67984 44201 124086 279603 82183 468281 49842 234019 285845 376412 39038 89950 90427 459559 181693 63174 34715 117267 137331 187630 53566 234514 197562 82875 522402 321941 16981 103784 75213 65219
internal_value=0 -0.16613 0.153595 -0.229499 -0.182905 -0.279623 0.250293 -0.127758 -0.390399 0.0893033 -0.858183 0.0331303 0.401677 0.32072 -0.194705 0.147536 0.359727 -0.106962 0.31256 0.0631055 -0.237571 -0.126814 -0.414789 -0.53052 -0.58912 0.104938 -0.258279 -0.225531 0.0684841 -0.0122112
internal_count=5097833 2918448 2179385 2736916 2401294 1928385 1438624 740761 1541096 764552 335622 387289 674072 549986 467538 297339 116898 180441 181532 309180 121550 388140 431581 1073558 990683 472909 56019 338298 462373 387160
shrinkage=0.1


Tree=23
num_leaves=31
num_cat=0
split_feature=23 18 5 2 1 4 26 39 14 0 18 38 1 3 11 12 12 2 0 10 0 3 45 10 1 9 39 49 48 0
split_gain=41172 29547.9 90114.8 66249.8 47571.2 25065.6 18956.2 12338.8 10217.1 10103.1 9991.48 9876.39 9532.49 8743 8464.44 8460.95 7993.38 7307.91 7192.41 6926.19 6886.4 7017.5 6230.31 5505.5 5371.71 5232.96 4930.97 4909.83 7375.33 4853.99
threshold=1.0000000180025095e-35 21.510000000000002 9.1500000000000004 11.300000000000002 9.1500000000000004 11.550000000000002 0.032500513000000002 0.20445000000000002 0.7350000000000001 13.025000000000002 4.5250000000000012 4417.5000000000009 16.750000000000004 19.255000000000006 1.0000000180025095e-35 25188.500000000004 55266.500000000007 5.5000000000000009 22.040000000000003 1.0000000180025095e-35 5.0050000000000008 2.9150000000000005 5.5000000000000009 1.0000000180025095e-35 6.5000000000000009 4.5000000000000009 1.0000000180025095e-35 2168.5000000000005 1.0000000180025095e-35 32.525000000000006
decision_type=2 2 2 2 2 2 2 2 2 2 2 2 2 2 2 2 2 2 2 2 2 2 2 2 2 2 2 2 2 2
left_child=1 2 5 14 9 7 15 18 11 13 20 -5 19 -3 -4 23 29 24 26 -8 -2 -22 -17 -6 -9 -13 -1 28 -19 -12
right_child=10 4 3 8 6 -7 12 17 -10 -11 16 25 -14 -15 -16 22 -18 27 -20 -21 21 -23 -24 -25 -26 -27 -28 -29 -30 -31
leaf_value=0.10405441304729834 0.021997612014888476 0.017886413466221614 -0.1112510964240552 0.031159423868253513 -0.005479989129346584 -0.085763889838246288 0.020221167905697342 0.0017091429599993694 -0.065226225203153188 0.0052455648526324589 0.040449305535897796 -0.075729290965950991 -0.088502366738588328 -0.093434945132516142 -0.020622458401012279 -0.037059034868103108 0.0057372195694642796 0.061278716393681189 -0.093168391105883236 0.052917506459981105 -0.18226669439739474 -0.026622076863251895 0.012770961924947394 0.037407209857450122 -0.080236306033852123 -0.01045091370649387 0.034242391018556195 -0.05197932465508092 -0.0013684062550938815 -0.064266317833775996
leaf_count=8797 51583 19426 1334919 145332 196707 128593 212615 34845 227979 50341 381289 70443 27026 285754 31392 307370 151396 49811 20107 218447 11358 69845 76908 144874 94818 142145 333469 45892 211920 12432
internal_value=0 -0.0956822 -0.240136 -0.62397 0.0666934 0.112033 0.182377 0.186384 -0.140309 -0.626674 0.250158 -0.00727624 0.362758 -0.802101 -1.05338 -0.0243819 0.311005 -0.0421189 0.353609 0.390901 -0.0965112 -0.404168 -0.215551 0.162506 -0.454062 -0.267391 0.383621 0.0878902 0.165789 0.389219
internal_count=5097833 4419930 2880462 1952210 1539468 928252 1183947 799659 585899 355521 677903 357920 458088 305180 1366311 725859 545117 437286 362373 431062 132786 81203 384278 341581 129663 212588 342266 307623 261731 393721
shrinkage=0.1


Tree=24
num_leaves=31
num_cat=0
split_feature=40 26 26 26 8 6 48 48 11 24 41 6 41 13 10 45 27 9 12 46 42 17 30 49 12 49 13 34 21 28
split_gain=36740.5 32158.1 21857.4 25027.7 14532 14396.2 13655.2 11687.6 10545.6 9016.04 8692.96 8096.14 8047.79 7709.18 7683.59 7582.16 6122.15 5375.79 5164.28 4969.49 4432.59 4228.83 3912.94 3568.08 3542.94 3461.96 3227.25 3044.66 4770.34 3004.04
threshold=1.0000000180025095e-35 0.044104742000000009 1.0000000180025095e-35 0.015553527000000001 114553.50000000001 154.50000000000003 71938.000000000015 71938.000000000015 1.0000000180025095e-35 0.87500000000000011 1.0000000180025095e-35 160.50000000000003 6.5000000000000009 14.500000000000002 1.0000000180025095e-35 9.5000000000000018 0.16565000000000002 16.500000000000004 16357.500000000002 5.5000000000000009 1.0000000180025095e-35 1.0000000180025095e-35 0.50500000000000012 13.500000000000002 27363.500000000004 10.500000000000002 405.50000000000006 1.0000000180025095e-35 23.500000000000004 1.0000000180025095e-35
decision_type=2 2 2 2 2 2 2 2 2 2 2 2 2 2 2 2 2 2 2 2 2 2 2 2 2 2 2 2 2 2
left_child=1 2 -1 15 20 6 26 -6 9 21 13 14 -7 -8 -2 24 -13 -15 -19 27 -3 -9 29 -23 -4 -11 -5 28 -10 -20
right_child=11 4 3 5 7 12 10 8 19 25 -12 16 -14 17 -16 -17 -18 18 22 -21 -22 23 -24 -25 -26 -27 -28 -29 -30 -31
leaf_value=0.034078506490986989 -0.007123860142100061 -0.039597423021963035 -0.055884203345997023 0.036030415370305574 0.046186703667033494 -0.06250256938898209 0.014880110785835402 -0.036512986028280923 0.012830440246940363 0.0038658408653127647 0.016220031510065677 -0.012948659414322937 -0.013992636029472403 -0.051902290850540926 0.060320111012964341 0.0030423330334827447 0.038190602586859655 0.0029536904169542612 -0.041425749082594325 0.038563834166572254 0.00082300329753554134 0.048747734276657607 -0.05339617921270845 0.0070356738334389698 -0.089823674583115243 -0.04512473793398894 -0.001436449336830774 0.025623585986559252 -0.058876789976064936 0.0022713181687544523
leaf_count=147417 49024 204794 518185 180166 200872 364315 115110 76288 46971 46302 178746 118537 174483 373981 171784 51656 65744 189055 115282 159707 114939 45683 198296 245905 391157 258062 103593 60410 34186 97183
internal_value=0 -0.0605192 -0.189627 -0.239061 0.10917 -0.15181 -0.0684305 0.178672 0.0998835 -0.0620854 -0.15994 0.363091 -0.430755 -0.233116 0.511813 -0.615236 0.134294 -0.300288 -0.204119 0.258762 -0.220488 0.103645 -0.328629 0.175582 -0.697033 -0.330171 0.244712 0.0694298 -0.126922 -0.164069
internal_count=5097833 4692744 3198625 3051208 1494119 2090210 1551412 1174386 973514 672240 1267653 405089 538798 1088907 220808 960998 184281 973797 599816 301274 319733 367876 410761 291588 909342 304364 283759 141567 81157 212465
shrinkage=0.1


Tree=25
num_leaves=31
num_cat=0
split_feature=45 14 38 12 17 12 17 18 17 21 40 21 42 28 14 9 12 10 9 12 9 16 30 13 45 49 45 10 47 42
split_gain=34431.6 22558.1 21360 16403.4 15697.8 11311.4 11066.8 9964.33 9420.54 8313.49 7258.59 6661.79 5986.06 5251.51 4753.12 4371.16 4214.82 4010.54 3746.85 3640.01 3634.05 3494.34 3630.6 3384.82 3384.39 3207.53 3089.92 2967.95 2917.23 2902.87
threshold=1.0000000180025095e-35 0.67500000000000016 7666.5000000000009 41069.500000000007 2.5000000000000004 60521.500000000007 3.5000000000000004 3.0450000000000004 5.5000000000000009 21.500000000000004 1.0000000180025095e-35 12.500000000000002 1.0000000180025095e-35 1.0000000180025095e-35 0.88500000000000012 1.5000000000000002 6845.5000000000009 1.0000000180025095e-35 7.5000000000000009 17832.500000000004 3.5000000000000004 2.5000000000000004 0.66500000000000015 190.50000000000003 8.5000000000000018 34.500000000000007 12.500000000000002 1.0000000180025095e-35 2.5000000000000004 1.0000000180025095e-35
decision_type=2 2 2 2 2 2 2 2 2 2 2 2 2 2 2 2 2 2 2 2 2 2 2 2 2 2 2 2 2 2
left_child=1 2 7 6 18 10 9 11 -5 14 12 15 23 24 27 -1 -9 -11 -4 -8 -13 22 -18 28 -10 -3 -21 -2 -6 -7
right_child=3 25 4 8 5 29 19 16 13 17 -12 20 -14 -15 -16 -17 21 -19 -20 26 -22 -23 -24 -25 -26 -27 -28 -29 -30 -31
leaf_value=-0.025393746134087861 0.01338210927121506 -0.029164985308964966 -0.089613000154984468 -0.035993411542614422 0.0019989911796192152 -0.059798492314610846 0.054217978870923826 0.043069343889623579 -0.025881033308234481 -0.044527252419346228 0.045049176198811693 -0.071030189924810902 0.0096881395223393403 0.020222184697514176 -0.054277888029563987 0.025886569197437665 0.019170080458187716 0.00047901842907516749 -0.045682173803298913 0.02459403616006621 -0.018967674011757387 0.02032761089716803 -0.061164817940241048 -0.041099842632799997 0.012247118124816228 -0.069813608461382959 0.055723017351917287 0.049124445367644293 -0.050395002301718117 -0.023178136756031774
leaf_count=104090 102485 182331 131363 203008 180231 214984 153156 163001 178458 98462 44585 87612 270146 240033 37634 161749 29194 145259 291315 323311 171414 303597 45702 228135 84222 590809 58910 90962 60230 121445
internal_value=0 -0.133023 -0.0785847 0.153397 -0.224456 -0.122981 0.26521 0.101082 -0.0354092 0.075428 -0.0182325 -0.10184 -0.0778398 0.0650352 0.271952 0.09883 0.23554 -0.148932 -0.568367 0.384703 -0.329932 0.137216 -0.224929 -0.226484 -0.108417 -0.587017 0.307515 0.329996 -0.0791824 -0.43389
internal_count=5097833 3381933 2608793 1715900 1542434 1119756 1010179 1066359 705721 474802 783327 524865 738742 502713 231081 265839 541494 243721 422678 535377 259026 378493 74896 468596 262680 773140 382221 193447 240461 336429
shrinkage=0.1


Tree=26
num_leaves=31
num_cat=0
split_feature=34 13 13 28 5 23 6 10 27 4 10 49 27 26 13 48 12 49 13 15 13 10 45 29 48 30 6 10 41 6
split_gain=31751.3 23798.5 17198.4 16100.3 13944.7 12898.9 9760.39 10899.3 9279.06 7169.47 6585.42 6546.23 6509.72 6245.54 5690.35 5336.7 5043.18 4611.45 4296.74 4281.22 4240.86 4415.25 3846.81 3832.76 3832.75 3682.37 3583.98 3582.44 3368.39 3426.23
threshold=1.0000000180025095e-35 251.50000000000003 79.500000000000014 1.0000000180025095e-35 14.350000000000001 1.0000000180025095e-35 58.500000000000007 1.0000000180025095e-35 0.26475000000000004 15.500000000000002 2.5000000000000004 1488.5000000000002 0.28275000000000006 0.051934059500000011 14.500000000000002 1.0000000180025095e-35 23094.500000000004 27.500000000000004 2904.5000000000005 276.50000000000006 8.5000000000000018 1.0000000180025095e-35 4.5000000000000009 0.065272543579339995 40397.500000000007 0.72500000000000009 61.500000000000007 1.5000000000000002 11.500000000000002 154.50000000000003
decision_type=2 2 2 2 2 2 2 2 2 2 2 2 2 2 2 2 2 2 2 2 2 2 2 2 2 2 2 2 2 2
left_child=2 3 13 4 12 8 7 15 19 -6 25 28 14 20 -2 -4 -16 -5 24 -3 -1 -22 -18 -17 -7 -8 -23 -19 29 -10
right_child=1 5 6 17 9 18 10 -9 11 -11 -12 -13 -14 -15 16 23 22 27 -20 -21 21 26 -24 -25 -26 -27 -28 -29 -30 -31
leaf_value=0.020330126695866577 0.037462617116066257 -0.022908723212213447 0.033846052051445634 0.056416593397577791 -0.10731068948287877 0.042617632059232698 -0.054129333835056054 0.01922105800871101 0.01283941371845327 0.0091615136440853211 -0.029505884031394099 -0.042746394780970857 0.035389748996701727 0.024549271962997634 0.014437123159901925 -0.068764780984753457 -0.0342993922553987 0.015116337846000215 -0.028260858276313285 -0.056244973384500407 -0.029920083715477542 0.039698458862894442 0.0088628064239377122 -0.030059872949858648 0.0093759569958165121 -0.098934510866374642 -0.021075517986023893 0.042704085248178619 0.034183950732125816 -0.028381241670650387
leaf_count=91591 83702 573676 33913 160621 128640 69665 166908 166270 148450 21098 206603 109836 151652 148005 231782 261951 267399 200091 36970 264824 390109 53946 69789 298888 138940 193928 69078 185480 79102 94926
internal_value=0 0.094537 -0.198798 0.226363 0.0726699 -0.0651821 -0.357381 -0.209124 -0.17477 -0.671192 -0.573812 0.00231788 0.130448 -0.000848333 0.0336837 -0.359563 -0.0457582 0.395539 0.165124 -0.32608 -0.104888 -0.185204 -0.201431 -0.41779 0.223363 -0.764858 0.0997735 0.302762 0.0977792 -0.00793234
internal_count=5097833 3016643 2081190 1500254 954062 1516389 1328461 761022 1270814 149738 567439 432314 804324 752729 652672 594752 568970 546192 245575 838500 604724 513133 337188 560839 208605 360836 123024 385571 322478 243376
shrinkage=0.1


Tree=27
num_leaves=31
num_cat=0
split_feature=42 13 41 13 48 19 47 6 17 10 21 34 10 27 13 12 13 48 6 13 47 47 48 45 23 14 29 10 9 19
split_gain=28663.2 19801.2 15708.9 13806.8 12545.3 9218.94 11055.6 8951.76 8889.51 8794.76 8115.45 7733.19 6992.18 6924.03 5888.31 5519.45 5461.73 4706.39 4685.07 4508.84 4017.96 5692.07 3863.03 3570.53 3317.92 3310.87 3292.33 3106.13 2952.52 2909.92
threshold=1.0000000180025095e-35 69.500000000000014 1.0000000180025095e-35 145.50000000000003 27536.500000000004 3.5000000000000004 2.5000000000000004 61.500000000000007 4.5000000000000009 1.0000000180025095e-35 21.500000000000004 1.0000000180025095e-35 1.5000000000000002 0.24985000000000004 1629.5000000000002 63114.500000000007 3234.0000000000005 1.0000000180025095e-35 110.50000000000001 13.500000000000002 11.000000000000002 8.5000000000000018 106127.00000000001 5.5000000000000009 1.0000000180025095e-35 0.70500000000000007 0.094874229282140746 1.5000000000000002 19.500000000000004 2.5000000000000004
decision_type=2 2 2 2 2 2 2 2 2 2 2 2 2 2 2 2 2 2 2 2 2 2 2 2 2 2 2 2 2 2
left_child=1 5 7 9 16 6 11 12 10 19 28 -1 17 18 -15 -10 25 -3 -4 -2 21 -8 -21 -20 29 -5 -19 -12 -6 -24
right_child=3 2 13 4 8 -7 20 -9 15 -11 27 -13 -14 14 -16 -17 -18 26 23 22 -22 -23 24 -25 -26 -27 -28 -29 -30 -31
leaf_value=-0.017680711690664833 0.047504485166902172 0.0019972846577349461 0.00037759566236951004 0.040331320482955541 -0.022105712301531077 0.033981648332800395 -0.035001522425570274 -0.063668189772904324 0.016692521366409238 0.04740919136201599 -0.075490791578817884 0.022886251980357979 0.0079536306771257666 0.023085338481903035 -0.026641099990628941 -0.022876783132878206 -0.027178653758491989 -0.066080113213339925 -0.052877986224668695 0.045602580247240662 0.0078425147020330654 -0.12217687422450454 -0.016450959035820799 -0.0027122823551225905 0.023246859778333098 -0.024109120978272315 -0.032994047611171161 -0.032995381915103178 0.018839763946462973 0.077280105990714942
leaf_count=281962 53101 86139 180884 204310 162340 216594 94861 499788 331322 257382 137964 279364 150332 188720 93207 144059 47307 333604 249980 42651 30031 66438 255547 50738 55141 52300 303770 149501 90181 8315
internal_value=0 -0.12484 -0.240244 0.138035 0.0269756 0.0698168 -0.0342572 -0.393768 -0.0790223 0.296717 -0.267716 0.0653437 -0.271882 -0.0553422 0.10772 0.0653889 0.283775 -0.370712 -0.224489 0.143004 -0.503002 -0.669526 0.0644259 -0.391058 -0.00616701 0.356783 -0.447375 -0.507126 -0.0280359 -0.123599
internal_count=5097833 3106412 2137162 1991421 1319284 969250 752656 1373633 1015367 672137 539986 561326 873845 763529 281927 475381 303917 723513 481602 414755 191330 161299 361654 300718 319003 256610 637374 287465 252521 263862
shrinkage=0.1


Tree=28
num_leaves=31
num_cat=0
split_feature=14 40 12 17 17 21 45 12 9 26 6 9 46 10 9 5 4 4 45 15 12 16 13 46 16 13 7 28 6 27
split_gain=26401.3 23402.6 19590.8 19590.5 16183.6 14003.6 8677.52 8296.53 6620.15 6415.35 6013.74 5695.03 5452.17 5243.64 5100.26 5045.51 25196.3 8956.79 4215.5 4114.69 3485.86 3372.33 3448.67 3364.43 3554.53 3352.23 3329.84 3182.22 3049.54 3093.11
threshold=0.68500000000000016 1.0000000180025095e-35 25188.500000000004 5.5000000000000009 2.5000000000000004 15.500000000000002 5.5000000000000009 81540.500000000015 20.500000000000004 0.018735114500000004 531.50000000000011 9.5000000000000018 4.5000000000000009 1.0000000180025095e-35 1.5000000000000002 7.9500000000000002 8.2000000000000011 11.550000000000002 2.5000000000000004 330.50000000000006 10024.500000000002 1.0000000180025095e-35 879.50000000000011 5.5000000000000009 5.5000000000000009 69.500000000000014 1948.5000000000002 1.0000000180025095e-35 52.500000000000007 0.24985000000000004
decision_type=2 2 2 2 2 2 2 2 2 2 2 2 2 2 2 2 2 2 2 2 2 2 2 2 2 2 2 2 2 2
left_child=1 2 4 12 5 14 7 15 -2 -10 13 -7 -4 -3 -1 17 -17 19 20 -5 -6 -13 -23 24 -22 -14 -8 -18 -15 -30
right_child=8 10 3 6 18 11 26 -9 9 -11 -12 21 25 28 -16 16 27 -19 -20 -21 23 22 -24 -25 -26 -27 -28 -29 29 -31
leaf_value=-0.018765840180870703 -0.057499636547691427 -0.0070272828713878691 -0.062466497035525682 0.030333809413448945 0.037968246164257702 -0.054199463605666201 0.033216155315764842 -0.043626795533995594 -0.0477941079274741 0.0057371742336703412 -0.0060174286760053021 -0.067127667556195078 -0.0085624626103165801 0.067769055166455913 0.025079610001033977 -0.11157863671494719 -0.014447811507703197 -0.078295054335502323 0.044403643797812385 -0.012273269857311066 -0.052463371679331045 -0.00095064752345419719 -0.054725069752977695 0.025957760656358492 0.006198797861349541 -0.041944285504172375 -0.0016445839516985219 0.024940095186892199 0.025719393694913939 0.062900440557541834
leaf_count=140679 603846 42281 288464 156387 156896 210102 138502 228909 309393 190735 60177 43136 143588 62602 350088 191861 121752 52927 146167 77744 46482 259205 52936 216187 213059 260597 97571 86120 113182 36258
internal_value=0 0.042167 -0.00792678 -0.13816 0.109822 -0.0505172 -0.015685 -0.108392 -0.370513 -0.183545 0.357756 -0.255998 -0.401845 0.428714 0.159319 -0.022242 -0.183711 0.112098 0.260261 0.190914 0.193994 -0.134646 -0.0800985 0.120206 -0.012383 -0.274664 0.210285 0.0721948 0.489334 0.384593
internal_count=5097833 3993859 3679359 1844422 1834937 1056146 1151773 915700 1103974 500128 314500 565379 692649 254323 490767 686791 399733 287058 778791 234131 632624 355277 312141 475728 259541 404185 236073 207872 212042 149440
shrinkage=0.1


Tree=29
num_leaves=31
num_cat=0
split_feature=26 45 11 24 14 12 22 13 15 0 3 5 4 2 38 5 2 4 6 10 10 41 26 28 5 17 26 30 9 41
split_gain=24215.4 16021.6 14328 12298.4 12154.6 12005.1 6659.58 6517.8 6127.43 5475.58 15464.5 7270.46 10831.5 5887.73 5359.71 5358.69 5717.55 5585.34 5003.37 6100.43 4930.38 4830.79 4489.44 4368.92 3949.73 3850.88 3776.05 3759.93 3464.15 3421.7
threshold=0.039372247000000006 3.5000000000000004 1.0000000180025095e-35 0.87500000000000011 0.76500000000000012 34988.000000000007 14.500000000000002 785.50000000000011 105.50000000000001 32.525000000000006 26.165000000000003 4.0000000000000009 5.5000000000000009 5.5000000000000009 11733.500000000002 7.9500000000000002 8.2000000000000011 11.550000000000002 45.500000000000007 1.0000000180025095e-35 1.0000000180025095e-35 2.5000000000000004 1.0000000180025095e-35 1.0000000180025095e-35 16.750000000000004 4.5000000000000009 0.019829741500000005 0.66500000000000015 1.5000000000000002 10.500000000000002
decision_type=2 2 2 2 2 2 2 2 2 2 2 2 2 2 2 2 2 2 2 2 2 2 2 2 2 2 2 2 2 2
left_child=1 4 3 8 5 6 18 20 24 11 -11 12 -5 -13 -3 17 -17 -8 19 -1 27 -20 -7 -18 28 -16 -24 -4 -2 -10
right_child=2 14 7 9 -6 22 15 -9 29 10 -12 13 -14 -15 25 16 23 -19 21 -21 -22 -23 26 -25 -26 -27 -28 -29 -30 -31
leaf_value=4.9126612497296829e-05 -0.033247704107989801 0.029739905315650263 0.029276807323469947 0.064936643857063922 -0.059246470305278333 0.011102543106066516 0.020673729314749534 -0.00094533371173362757 -0.021465741671767794 -0.11031884600977132 0.07523489538726702 -0.094099764441076109 -0.11102422425944279 -0.031276705049143087 -0.031724116195026276 -0.10446370865453221 -0.051832501389701892 -0.087210599928358501 -0.03237742424249878 0.042044946213370349 0.042906777422474118 0.012563988855855295 -0.07068101032984446 -0.0031249202722820864 -0.067114644855443217 0.00795201135474519 -0.034200388036460694 -0.0050436210663037757 0.029446745966734741 0.01786464475122022
leaf_count=331797 39327 192231 140173 19867 622266 40864 77872 131705 255977 48652 28738 108800 23308 350568 104245 129549 199163 34403 228162 130126 228516 106682 268863 106872 30890 229331 368682 88737 348218 83249
internal_value=0 -0.122592 0.120457 -0.00811527 -0.206978 -0.154479 -0.0573818 0.256291 0.120054 -0.235782 0.224678 -0.314113 0.244543 -0.414423 0.109149 -0.245355 -0.387086 0.0564675 0.0374636 0.152645 0.317771 -0.137505 -0.388382 -0.285078 0.233982 -0.0210368 -0.446356 0.181039 0.259408 -0.0793958
internal_count=5097833 3171108 1926725 1337594 2645301 2023035 1344626 589131 757661 579933 77390 502543 43175 459368 525807 547859 435584 112275 796767 461923 457426 334844 678409 306035 418435 333576 637545 228910 387545 339226
shrinkage=0.1


Tree=30
num_leaves=31
num_cat=0
split_feature=28 5 2 13 23 2 41 13 34 10 1 6 13 0 10 27 18 1 4 0 11 20 19 20 48 21 38 13 20 4
split_gain=22197.7 16649.8 14431.1 14232.2 13949.8 9679.32 9123.51 9086.07 9475.47 8936.62 8527.21 8110.44 6252.88 5799.74 5785.96 4975.43 4621.9 9501.75 8965.08 5071.08 4252.72 4247.89 6728.91 7990.43 4211.51 4021.7 3977.61 3960.08 3955.23 3920.24
threshold=1.0000000180025095e-35 14.350000000000001 15.250000000000002 103.50000000000001 1.0000000180025095e-35 15.250000000000002 3.5000000000000004 63.500000000000007 2.5000000000000004 1.0000000180025095e-35 12.750000000000002 86.500000000000014 10.500000000000002 21.040000000000003 2.5000000000000004 0.29175000000000006 31.030000000000005 9.1500000000000004 11.550000000000002 19.550000000000004 1.0000000180025095e-35 101.50000000000001 3.5000000000000004 102.50000000000001 1.0000000180025095e-35 24.500000000000004 8254.5000000000018 685.50000000000011 101.50000000000001 11.550000000000002
decision_type=2 2 2 2 2 2 2 2 2 2 2 2 2 2 2 2 2 2 2 2 2 2 2 2 2 2 2 2 2 2
left_child=1 3 4 9 7 -3 11 -2 25 12 -4 14 -1 27 24 16 17 -10 -19 -18 -12 -11 23 -23 -5 -9 -14 -6 -7 -25
right_child=2 5 10 6 13 28 -8 8 15 21 20 -13 26 -15 -16 -17 19 18 -20 -21 -22 22 -24 29 -26 -27 -28 -29 -30 -31
leaf_value=0.021362350847591065 0.021984504142528991 -0.10657503357469422 -0.023953020935017357 0.0052812276948048563 0.035791710909919089 -0.057594932820467452 0.00031264403706666712 -0.014868293030104349 0.0078981252726559349 0.036006725132022452 0.077943866464233874 -0.056942377811058147 -0.0018924693397571102 -0.073098649946306549 0.011125323285140659 0.021517589232553827 -0.043318211336142338 -0.10338331021658094 -0.0097045169178316803 0.022670513751255176 0.027257142027951015 -0.083078768379096196 0.05867075249431658 -0.036937032800218123 -0.038983859597858217 -0.048438831890336681 -0.037208683949940986 0.0073208683630240539 0.037079525962382238 0.034099487877347311
leaf_count=118350 256156 288084 47108 87522 234932 40742 369867 324632 117626 223306 88706 417046 218747 16113 143131 174575 54633 199055 73941 120858 35114 57661 30467 56743 525253 329937 271900 105999 19048 50581
internal_value=0 -0.121848 0.112073 -0.0854578 0.0665682 -0.704644 -0.21388 -0.0309047 -0.103951 0.0645216 0.489876 -0.319496 -0.0914218 0.257597 -0.198299 0.0170793 -0.087129 -0.246644 -0.592048 0.0963284 0.619432 0.232648 0.0293931 -0.161642 -0.301958 -0.30775 -0.207339 0.280775 -0.123696 0.0920588
internal_count=5097833 2918448 2179385 2570574 2008457 347874 1542819 1651413 1395257 1027755 170928 1172952 608997 357044 755906 740688 566113 390622 272996 175491 123820 418758 195452 164985 612775 654569 490647 340931 59790 107324
shrinkage=0.1


Tree=31
num_leaves=31
num_cat=0
split_feature=14 9 13 26 10 6 21 6 41 41 29 3 45 17 5 48 46 13 2 6 49 7 0 23 21 17 12 17 45 49
split_gain=21432.2 15940.3 14454.4 13531.8 12580.6 8290.07 7319.52 6059.77 6138.97 5874.8 5551.75 5260.39 5284.76 4821.07 4782.69 4768.36 4561.9 4391.43 4095.76 4039.86 3707.85 3473 3463.97 3247.13 3148.63 3343.78 2674.32 2965.2 2666.31 2510.73
threshold=0.18500000000000003 13.500000000000002 785.50000000000011 0.020289972500000007 1.5000000000000002 72.500000000000014 24.500000000000004 134.50000000000003 12.500000000000002 1.0000000180025095e-35 0.031031894497573379 36.105000000000011 19.500000000000004 5.5000000000000009 7.2500000000000009 78330.500000000015 5.5000000000000009 16.500000000000004 11.300000000000002 34.500000000000007 3704.0000000000005 1607.5000000000002 29.875000000000004 1.0000000180025095e-35 22.500000000000004 3.5000000000000004 13412.500000000002 6.5000000000000009 1.0000000180025095e-35 73.500000000000014
decision_type=2 2 2 2 2 2 2 2 2 2 2 2 2 2 2 2 2 2 2 2 2 2 2 2 2 2 2 2 2 2
left_child=2 10 4 11 5 15 29 -6 28 19 -2 12 14 -8 -3 -1 -7 -17 -16 -4 -11 -15 -13 26 -12 -26 -19 -28 -9 -5
right_child=1 3 9 6 7 16 13 8 -10 20 24 22 -14 21 18 17 -18 23 -20 -21 -22 -23 -24 -25 25 -27 27 -29 -30 -31
leaf_value=0.037071644565716454 -0.063330086292125373 -0.0070673175259709578 -0.0095809170045017857 0.036384553988610846 0.042659547648970973 -0.052797882744336493 -0.025984640175545849 -0.014325818237152343 0.042674333050827962 0.007787078803589512 -0.010990998106554921 -0.065143192338278269 0.030451862326113917 0.016911044058082126 -0.087356299025891496 0.03246026869459185 -0.0047612217645615802 0.0071929662839389178 -0.039476959836772747 -0.054008496920634634 -0.036108436929297882 -0.018474803012072893 0.010086939421367881 0.018572982702201448 -0.063887334088321632 -0.0062220479388568027 -0.038341805715494004 -0.00073651666678652746 0.017556740175383903 0.0097479198986659757
leaf_count=106637 528697 65602 115817 168680 314344 118164 261841 157650 92631 256075 243041 54195 21299 231694 383343 84578 123323 172773 205604 183983 67416 136895 142233 86830 149170 47544 155974 118612 101082 202106
internal_value=0 -0.138811 0.0955519 -0.0474852 0.162063 0.0393795 0.0601284 0.301675 0.160476 -0.133814 -0.40191 -0.302819 -0.430238 -0.0607805 -0.501695 0.114313 -0.243603 0.0541481 -0.622655 -0.341986 -0.00131565 0.0574941 -0.0200832 -0.010708 -0.261554 -0.456693 -0.0925671 -0.206627 0.0175108 0.234863
internal_count=5097833 2841944 2255889 1873492 1632598 966891 1001216 665707 351363 623291 968452 872276 675848 630430 654549 725404 241487 618767 588947 299800 323491 368589 196428 534189 439755 196714 447359 274586 258732 370786
shrinkage=0.1


Tree=32
num_leaves=31
num_cat=0
split_feature=45 12 12 17 9 14 9 12 42 17 38 19 17 47 40 44 0 29 13 12 49 22 15 40 27 16 10 16 7 9
split_gain=19305.6 14231.9 11763.1 11019.4 9999.68 7415.86 6519.83 6298.15 6081.68 5367.76 5510.31 4687.06 4546.21 4338.22 3851.37 3638.98 3628.97 3146.34 3097.32 3017.16 2970 2889.87 2809.3 2799.76 2983.44 2764.94 2737.5 2718.34 2573.23 2551.13
threshold=1.0000000180025095e-35 22843.500000000004 54587.500000000007 3.5000000000000004 9.5000000000000018 0.22500000000000003 21.500000000000004 70052.500000000015 1.0000000180025095e-35 1.0000000180025095e-35 1722.5000000000002 1.5000000000000002 8.5000000000000018 1.5000000000000002 1.0000000180025095e-35 -1.0000000180025095e-35 38.100000000000009 0.018283010460436348 519.50000000000011 5427.5000000000009 28.500000000000004 6.5000000000000009 31.500000000000004 1.0000000180025095e-35 0.27275000000000005 1.0000000180025095e-35 1.5000000000000002 4.5000000000000009 2931.5000000000005 19.500000000000004
decision_type=2 2 2 2 2 2 2 2 2 2 2 2 2 2 2 2 2 2 2 2 2 2 2 2 2 2 2 2 2 2
left_child=1 4 5 29 9 15 17 14 11 10 -1 13 -4 -6 16 -2 20 -7 26 -10 -5 -15 -8 24 -13 -21 -17 -22 -14 -3
right_child=2 3 12 7 8 6 22 -9 19 -11 -12 23 28 21 -16 18 -18 -19 -20 25 27 -23 -24 -25 -26 -27 -28 -29 -30 -31
leaf_value=-0.0083963659999120067 -0.0082466009414994008 -0.071188662160185545 -0.029778039194843887 0.016611257461494677 0.024061041838490047 -0.042720262594096683 0.035872903818329964 -0.041848797158488653 0.047386829453733986 0.0029955046530111733 -0.06140860647552801 -0.0095810087410889283 0.011599126335847127 -0.006256205389795314 0.0322575707756469 0.027463352037222513 -0.066159225106944539 -0.0028679490859874852 0.015385569559251003 -0.03427974395650276 -0.061764805630055278 -0.071315349213237664 0.0063446986645564257 0.052528282549036777 0.019906024210665087 0.02014517104331599 0.049950429628831956 -0.010215039607977629 -0.021121539242453552 -0.038879782814692773
leaf_count=175066 55391 271549 211683 112579 27695 154579 124337 298469 93431 177908 293676 417109 191347 36765 42127 198535 101763 182413 169687 37716 59508 108227 192929 19677 133114 300001 142194 438030 92805 237523
internal_value=0 -0.102536 0.117836 -0.251951 0.00795186 0.191887 0.0525645 -0.146972 0.092346 -0.231124 -0.390127 -0.0255685 -0.097497 -0.323089 -0.06048 0.288854 -0.109912 -0.145874 0.319133 0.233151 -0.0733978 -0.507037 0.198418 0.0534549 0.0157839 0.158073 0.381755 -0.146788 0.0227485 -0.53837
internal_count=5097833 3381933 1715900 1561548 1820385 1220065 654258 1052476 1173735 646650 468742 742587 495835 172687 754007 565807 711880 336992 510416 431148 610117 144992 317266 569900 550223 337717 340729 497538 284152 509072
shrinkage=0.1


Tree=33
num_leaves=31
num_cat=0
split_feature=48 15 10 13 6 11 24 6 5 2 41 29 0 3 4 1 18 0 2 0 29 34 1 8 11 17 8 3 31 17
split_gain=18811.1 17927.3 13944.3 10826 8933.57 8760.41 9030.71 7658.06 6866.31 22085.1 6034.98 5635 5056.17 19001 13000.7 6228.5 4835.61 10351.3 5414.8 4593.6 4490.24 4470.35 4464.46 4206.14 4166.02 4001.8 3784.22 3314.55 3291.99 3228.3
threshold=1.0000000180025095e-35 30.500000000000004 2.5000000000000004 2496.0000000000005 55.500000000000007 1.0000000180025095e-35 0.77500000000000013 253.50000000000003 12.750000000000002 15.250000000000002 16.500000000000004 0.17348168790340426 25.900000000000002 26.455000000000002 11.550000000000002 9.1500000000000004 11.510000000000002 11.310000000000002 8.2000000000000011 70.500000000000014 0.017204752191901207 1.0000000180025095e-35 10.65 76855.500000000015 1.0000000180025095e-35 8.5000000000000018 80036.000000000015 34.775000000000013 48150.000000000007 1.0000000180025095e-35
decision_type=2 2 2 2 2 2 2 2 2 2 2 2 2 2 2 2 2 2 2 2 2 2 2 2 2 2 2 2 2 2
left_child=3 5 4 19 11 6 16 24 12 -10 -9 28 14 -14 15 -8 17 29 -19 23 -15 -7 -16 -1 -4 -6 -13 -21 -3 -2
right_child=1 2 7 -5 25 21 8 10 9 -11 -12 26 13 20 22 -17 -18 18 -20 27 -22 -23 -24 -25 -26 -27 -28 -29 -30 -31
leaf_value=-0.0020794932403218596 -0.019096445870193508 -0.040650559949451298 -0.0051206179303636308 -0.02735591166413855 -0.064476260430562468 0.010291740808051788 0.018012788767848016 -0.034162940651571612 -0.099459766621652387 0.046750308216664725 0.010966629644208407 -0.06288333109318503 -0.10787649367322499 -0.0054718044107041021 -0.082839051538767028 -0.088418025900053904 0.037974469340842601 -0.10659614427768922 -0.011094870683257003 -0.076335729100277805 0.062954642842528205 0.040511949598043551 0.03714990577690807 0.033968746180500407 0.024452084269627632 -0.028312602125587862 0.00060463057495612805 0.014144174759537033 0.002068358192951055 0.05822226981537048
leaf_count=94461 28964 611535 375192 137579 398635 186066 118948 343492 241391 35597 115071 41203 87221 71580 130570 35478 161483 82586 77300 58964 69081 133074 7640 576251 194297 189552 344478 35243 79366 35535
internal_value=0 -0.0591438 -0.160873 0.202003 -0.288103 0.0835057 -0.0188968 -0.008889 -0.149034 -0.489402 -0.192789 -0.182715 -0.0478271 0.184428 -0.189519 0.0768408 0.199108 -0.0258725 -0.501279 0.266106 0.44281 0.249859 -0.701002 0.294712 0.117839 -0.504059 -0.0412423 -0.247021 -0.333709 0.385033
internal_count=5097833 4195335 2692821 902498 1664769 1502514 1183374 1028052 797506 276988 458563 1076582 520518 227882 292636 154426 385868 224385 159886 764919 140661 319140 138210 670712 569489 588187 385681 94207 690901 64499
shrinkage=0.1


Tree=34
num_leaves=31
num_cat=0
split_feature=27 15 10 8 6 13 40 11 48 45 48 28 29 31 41 46 12 29 30 38 9 2 1 1 40 21 16 40 6 10
split_gain=17602.1 15412.1 11043.5 10898.9 8387.87 6851.86 6648.89 6415.56 6251.24 5599.85 5203.82 4714.37 4517.47 4347.17 4233.08 4136.33 3883.61 3611.23 2960.88 2937.7 2872.7 2794.52 6868.46 3066.61 2681 2600.01 4605.13 2493.51 2432.89 2610.46
threshold=0.24985000000000004 99.500000000000014 1.0000000180025095e-35 124061.00000000001 60.500000000000007 10.500000000000002 1.0000000180025095e-35 1.0000000180025095e-35 143290.00000000003 10.500000000000002 67656.000000000015 1.0000000180025095e-35 1.0000000180025095e-35 38200.000000000007 1.5000000000000002 3.5000000000000004 35358.500000000007 0.025891100056469444 0.47500000000000003 9300.5000000000018 4.5000000000000009 15.250000000000002 12.750000000000002 12.100000000000001 1.5000000000000002 13.500000000000002 2.5000000000000004 1.0000000180025095e-35 403.50000000000006 2.5000000000000004
decision_type=2 2 2 2 2 2 2 2 2 2 2 2 2 2 2 2 2 2 2 2 2 2 2 2 2 2 2 2 2 2
left_child=1 2 5 14 20 -1 10 21 -7 12 -5 -10 -6 28 -2 25 -17 -14 -13 -20 -4 22 -3 -23 -19 -12 -27 -22 29 -9
right_child=3 7 4 6 9 8 -8 13 11 -11 15 18 17 -15 -16 16 -18 24 19 -21 27 23 -24 -25 -26 26 -28 -29 -30 -31
leaf_value=0.019028119926026089 -0.028700191456904348 -0.037612318339920098 -0.0098397903981734553 0.037571734550162043 0.046891775402560947 0.0082200916610247528 0.056356589374025171 -0.034597885024492174 -0.04356824445112667 0.034144428445347492 0.021563189996265747 0.0044547604415510833 -0.052527196273843717 0.010420938922160564 0.0050228351377876032 0.030552312377979413 0.003641250606033695 -0.014737448056197339 -0.0095171968746444735 -0.051079487277058404 0.026724769512797536 -0.075715952934199832 -0.099525475245944808 0.012931070750990734 0.028370722354385366 -0.080382099533698681 -0.0061405086626615986 0.057504441241185748 -0.061475327817689898 -0.0040065052859610826
leaf_count=144427 221867 435015 76601 157470 36608 241729 54800 183131 568041 67019 62257 143290 173112 85774 191910 231139 236138 341701 148841 125243 305397 35717 307242 60735 29180 38838 170341 49869 45140 129261
internal_value=0 -0.0841064 -0.000628883 0.133082 0.127279 -0.128373 0.210353 -0.273795 -0.19196 -0.0167704 0.168936 -0.272845 -0.101732 -0.151552 -0.0999853 0.107072 0.183858 -0.154961 -0.139845 -0.27386 0.299697 -0.450243 -0.517266 -0.10772 -0.0832739 -0.0649682 -0.160863 0.346639 -0.248287 -0.196213
internal_count=5097833 3733073 2451058 1364760 1079487 1371571 950983 1282015 1227144 647620 896183 985415 580601 443306 413777 738713 467277 543993 417374 274084 431867 838709 742257 96452 370881 271436 209179 355266 357532 312392
shrinkage=0.1


Tree=35
num_leaves=31
num_cat=0
split_feature=42 19 47 19 19 20 9 28 5 32 49 12 34 47 41 14 11 24 39 21 17 12 1 47 22 16 4 47 3 21
split_gain=16917.6 12635.7 13548.4 11072.2 10166.7 9111.21 8636.26 7683.22 7636.52 10146.8 8225.77 6698.81 5887.05 5425.97 5316.32 4825.41 4684.57 5151.47 4146.94 3833.2 6801.86 3830.2 3369.3 3305.59 3885.43 3199.81 3151.17 2918.01 2788.69 2562.08
threshold=1.0000000180025095e-35 3.5000000000000004 2.5000000000000004 2.5000000000000004 2.5000000000000004 52.000000000000007 22.500000000000004 1.0000000180025095e-35 13.350000000000001 1.5000000000000002 91.500000000000014 16155.500000000002 14.500000000000002 11.000000000000002 1.0000000180025095e-35 0.87500000000000011 1.0000000180025095e-35 0.7350000000000001 0.13245000000000004 18.500000000000004 2.5000000000000004 15341.500000000002 10.65 8.5000000000000018 16.500000000000004 4.5000000000000009 15.500000000000002 6.0000000000000009 12.025 23.500000000000004
decision_type=2 2 2 2 2 2 2 2 2 2 2 2 2 2 2 2 2 2 2 2 2 2 2 2 2 2 2 2 2 2
left_child=1 2 8 6 13 7 15 -3 10 -10 14 -8 21 23 26 19 17 -13 -19 -2 -21 -12 -9 24 -4 -18 29 -6 -24 -1
right_child=3 5 4 -5 27 -7 11 22 9 -11 12 16 -14 -15 -16 -17 25 18 -20 20 -22 -23 28 -25 -26 -27 -28 -29 -30 -31
leaf_value=0.015287539304327306 0.014422951245521155 -0.021274037446610002 -0.043073384436862323 0.054945531093500956 0.05026477707190994 0.044673397038013228 0.037714499417065749 -0.0097877976672645327 0.022795969806983309 -0.099951663547102901 -0.013707557626119539 0.026757021245227927 -0.00052984616826684257 -0.013672680181675195 0.03233505037194475 -0.061396443678366365 -0.014923984036560478 0.0091867404611425726 -0.032591122790836743 -0.035330836010731663 0.0062419999385372356 -0.04397738568942601 -0.10500701753693331 -0.12084007233508887 -0.10155230716085606 0.02433519484315939 -0.073324425607449409 -0.03350600894903559 0.038495894255993174 -0.012215161852420935
leaf_count=193675 238626 388662 120551 96895 22290 144157 220698 76849 30037 163211 300317 100777 299862 58745 130786 132461 47412 102678 312521 278241 220332 439506 13980 111569 183721 240780 29845 30685 115544 252420
internal_value=0 -0.0986808 -0.174528 0.109398 -0.52227 0.101916 0.0753007 -0.0140463 -0.109877 -0.595132 -0.0789077 0.161236 -0.191873 -0.677887 0.073534 -0.0714434 0.0894019 -0.0500373 -0.167404 -0.0362785 -0.125678 -0.30688 0.212727 -0.807899 -0.675165 0.193065 -0.0311376 0.169246 0.348949 0.000187181
internal_count=5097833 3106412 2367220 1991421 527561 739192 1894526 595035 1839659 193248 1646411 1024866 1039685 474586 606726 869660 804168 515976 415199 737199 498573 739823 206373 415841 304272 288192 475940 52975 129524 446095
shrinkage=0.1


Tree=36
num_leaves=31
num_cat=0
split_feature=26 12 17 38 46 40 11 45 7 5 4 4 9 24 10 17 10 39 39 13 17 23 21 15 13 16 15 18 4 0
split_gain=15583.2 13511.6 16485.9 14425.7 6566.42 5768.31 5708.57 5516.75 5232.13 6946.49 28166.2 6904.36 5035.04 4978.34 4244.02 3969.75 3623.65 3419.51 3215.52 3210.39 2879.88 2513.74 2478.74 2420.44 2408.09 2320.84 2302.9 2165.98 2134.81 7692.83
